{"learner":{"attributes":{"scikit_learn":"{\"_estimator_type\": \"regressor\"}"},"feature_names":["team","targeted_productivity","smv","wip","over_time","incentive","idle_time","idle_men","no_of_style_change","no_of_workers","is_idle","is_style_change","workers_group","department_finishing","department_sweing","quarter_Quarter1","quarter_Quarter2","quarter_Quarter3","quarter_Quarter4","quarter_Quarter5","day_encoded","month","day_n"],"feature_types":["int","float","float","float","int","int","float","int","int","float","i","i","int","i","i","i","i","i","i","i","int","int","int"],"gradient_booster":{"model":{"gbtree_model_param":{"num_parallel_tree":"1","num_trees":"100"},"iteration_indptr":[0,1,2,3,4,5,6,7,8,9,10,11,12,13,14,15,16,17,18,19,20,21,22,23,24,25,26,27,28,29,30,31,32,33,34,35,36,37,38,39,40,41,42,43,44,45,46,47,48,49,50,51,52,53,54,55,56,57,58,59,60,61,62,63,64,65,66,67,68,69,70,71,72,73,74,75,76,77,78,79,80,81,82,83,84,85,86,87,88,89,90,91,92,93,94,95,96,97,98,99,100],"tree_info":[0,0,0,0,0,0,0,0,0,0,0,0,0,0,0,0,0,0,0,0,0,0,0,0,0,0,0,0,0,0,0,0,0,0,0,0,0,0,0,0,0,0,0,0,0,0,0,0,0,0,0,0,0,0,0,0,0,0,0,0,0,0,0,0,0,0,0,0,0,0,0,0,0,0,0,0,0,0,0,0,0,0,0,0,0,0,0,0,0,0,0,0,0,0,0,0,0,0,0,0],"trees":[{"base_weights":[-2.1340703E-8,-9.719568E-2,5.738249E-2,-1.7671263E-1,-5.9491448E-2,3.9585475E-2,1.8214567E-1,-5.2132085E-3,-2.3589898E-2,-5.3303605E-3,-3.433721E-2,-7.4744904E-3,5.382307E-3,1.3959189E-2,2.2679022E-2],"categories":[],"categories_nodes":[],"categories_segments":[],"categories_sizes":[],"default_left":[0,0,0,0,0,0,0,0,0,0,0,0,0,0,0],"id":0,"left_children":[1,3,5,7,9,11,13,-1,-1,-1,-1,-1,-1,-1,-1],"loss_changes":[5.3486605E0,1.0568199E0,1.3316981E0,8.2827735E-1,4.0855306E-1,8.651237E-1,1.1082649E-1,0E0,0E0,0E0,0E0,0E0,0E0,0E0,0E0],"parents":[2147483647,0,0,1,1,2,2,3,3,4,4,5,5,6,6],"right_children":[2,4,6,8,10,12,14,-1,-1,-1,-1,-1,-1,-1,-1],"split_conditions":[7.5E-1,6.5E-1,7E1,1.005E1,1.5E1,3.9E0,9E1,-5.2132085E-3,-2.3589898E-2,-5.3303605E-3,-3.433721E-2,-7.4744904E-3,5.382307E-3,1.3959189E-2,2.2679022E-2],"split_indices":[1,1,5,2,7,2,5,0,0,0,0,0,0,0,0],"split_type":[0,0,0,0,0,0,0,0,0,0,0,0,0,0,0],"sum_hessian":[9.57E2,3.55E2,6.02E2,1.13E2,2.42E2,5.28E2,7.4E1,3.7E1,7.6E1,2.38E2,4E0,5.8E1,4.7E2,4E1,3.4E1],"tree_param":{"num_deleted":"0","num_feature":"23","num_nodes":"15","size_leaf_vector":"1"}},{"base_weights":[-3.5420962E-5,-8.766843E-2,5.170154E-2,-1.5929402E-1,-5.370552E-2,3.562298E-2,1.6441962E-1,-4.7056074E-3,-2.1261543E-2,-4.7995523E-3,-3.1590234E-2,-6.739711E-3,4.84522E-3,1.259732E-2,2.0475915E-2],"categories":[],"categories_nodes":[],"categories_segments":[],"categories_sizes":[],"default_left":[0,0,0,0,0,0,0,0,0,0,0,0,0,0,0],"id":1,"left_children":[1,3,5,7,9,11,13,-1,-1,-1,-1,-1,-1,-1,-1],"loss_changes":[4.3479753E0,8.5745525E-1,1.0869867E0,6.722493E-1,3.486439E-1,7.024275E-1,9.052396E-2,0E0,0E0,0E0,0E0,0E0,0E0,0E0,0E0],"parents":[2147483647,0,0,1,1,2,2,3,3,4,4,5,5,6,6],"right_children":[2,4,6,8,10,12,14,-1,-1,-1,-1,-1,-1,-1,-1],"split_conditions":[7.5E-1,6.5E-1,7E1,1.005E1,1.5E1,3.9E0,9E1,-4.7056074E-3,-2.1261543E-2,-4.7995523E-3,-3.1590234E-2,-6.739711E-3,4.84522E-3,1.259732E-2,2.0475915E-2],"split_indices":[1,1,5,2,7,2,5,0,0,0,0,0,0,0,0],"split_type":[0,0,0,0,0,0,0,0,0,0,0,0,0,0,0],"sum_hessian":[9.57E2,3.55E2,6.02E2,1.13E2,2.42E2,5.28E2,7.4E1,3.7E1,7.6E1,2.38E2,4E0,5.8E1,4.7E2,4E1,3.4E1],"tree_param":{"num_deleted":"0","num_feature":"23","num_nodes":"15","size_leaf_vector":"1"}},{"base_weights":[-6.4418375E-5,-7.907676E-2,4.6583105E-2,-1.4359243E-1,-4.8484728E-2,1.0840056E-1,2.1054005E-2,-4.2474302E-3,-1.9163003E-2,-4.321606E-3,-2.9063016E-2,1.2766123E-2,3.5094407E-3,-6.3021528E-3,4.8235725E-3],"categories":[],"categories_nodes":[],"categories_segments":[],"categories_sizes":[],"default_left":[0,0,0,0,0,0,0,0,0,0,0,0,0,0,0],"id":2,"left_children":[1,3,5,7,9,11,13,-1,-1,-1,-1,-1,-1,-1,-1],"loss_changes":[3.534613E0,6.95663E-1,9.4933856E-1,5.456126E-1,2.9745567E-1,2.4401903E-1,9.8115575E-1,0E0,0E0,0E0,0E0,0E0,0E0,0E0,0E0],"parents":[2147483647,0,0,1,1,2,2,3,3,4,4,5,5,6,6],"right_children":[2,4,6,8,10,12,14,-1,-1,-1,-1,-1,-1,-1,-1],"split_conditions":[7.5E-1,6.5E-1,4E0,1.005E1,1.5E1,2.341E1,9E0,-4.2474302E-3,-1.9163003E-2,-4.321606E-3,-2.9063016E-2,1.2766123E-2,3.5094407E-3,-6.3021528E-3,4.8235725E-3],"split_indices":[1,1,0,2,7,2,9,0,0,0,0,0,0,0,0],"split_type":[0,0,0,0,0,0,0,0,0,0,0,0,0,0,0],"sum_hessian":[9.57E2,3.55E2,6.02E2,1.13E2,2.42E2,1.75E2,4.27E2,3.7E1,7.6E1,2.38E2,4E0,1.38E2,3.7E1,1.04E2,3.23E2],"tree_param":{"num_deleted":"0","num_feature":"23","num_nodes":"15","size_leaf_vector":"1"}},{"base_weights":[-1.0180374E-4,-7.1328595E-2,4.194934E-2,-1.2943853E-1,-4.377361E-2,2.7965963E-2,1.4001943E-1,-5.8116373E-3,-1.8625304E-2,-6.9164555E-4,-7.4204965E-3,-5.6273392E-3,3.845886E-3,1.0642537E-2,1.7537195E-2],"categories":[],"categories_nodes":[],"categories_segments":[],"categories_sizes":[],"default_left":[0,0,0,0,0,0,0,0,0,0,0,0,0,0,0],"id":3,"left_children":[1,3,5,7,9,11,13,-1,-1,-1,-1,-1,-1,-1,-1],"loss_changes":[2.872363E0,5.643678E-1,8.230089E-1,4.5111883E-1,2.720388E-1,4.6975535E-1,7.040858E-2,0E0,0E0,0E0,0E0,0E0,0E0,0E0,0E0],"parents":[2147483647,0,0,1,1,2,2,3,3,4,4,5,5,6,6],"right_children":[2,4,6,8,10,12,14,-1,-1,-1,-1,-1,-1,-1,-1],"split_conditions":[7.5E-1,6.5E-1,7E1,4.68E3,6E0,3.9E0,9E1,-5.8116373E-3,-1.8625304E-2,-6.9164555E-4,-7.4204965E-3,-5.6273392E-3,3.845886E-3,1.0642537E-2,1.7537195E-2],"split_indices":[1,1,5,4,0,2,5,0,0,0,0,0,0,0,0],"split_type":[0,0,0,0,0,0,0,0,0,0,0,0,0,0,0],"sum_hessian":[9.57E2,3.55E2,6.02E2,1.13E2,2.42E2,5.28E2,7.4E1,5.1E1,6.2E1,1.1E2,1.32E2,5.8E1,4.7E2,4E1,3.4E1],"tree_param":{"num_deleted":"0","num_feature":"23","num_nodes":"15","size_leaf_vector":"1"}},{"base_weights":[-9.803627E-5,-6.428717E-2,3.77982E-2,-1.1670903E-1,-3.942964E-2,9.1228224E-2,1.5738659E-2,-3.200555E-3,-1.5699506E-2,-3.4620024E-3,-2.6144331E-2,1.0812023E-2,2.7038339E-3,-5.642857E-3,3.907761E-3],"categories":[],"categories_nodes":[],"categories_segments":[],"categories_sizes":[],"default_left":[0,0,0,0,0,0,0,0,0,0,0,0,0,0,0],"id":4,"left_children":[1,3,5,7,9,11,13,-1,-1,-1,-1,-1,-1,-1,-1],"loss_changes":[2.3327901E0,4.5929408E-1,7.0928526E-1,3.8398492E-1,2.5042433E-1,1.8791258E-1,7.230887E-1,0E0,0E0,0E0,0E0,0E0,0E0,0E0,0E0],"parents":[2147483647,0,0,1,1,2,2,3,3,4,4,5,5,6,6],"right_children":[2,4,6,8,10,12,14,-1,-1,-1,-1,-1,-1,-1,-1],"split_conditions":[7.5E-1,6.5E-1,4E0,1.005E1,1.5E1,2.341E1,9E0,-3.200555E-3,-1.5699506E-2,-3.4620024E-3,-2.6144331E-2,1.0812023E-2,2.7038339E-3,-5.642857E-3,3.907761E-3],"split_indices":[1,1,0,2,7,2,9,0,0,0,0,0,0,0,0],"split_type":[0,0,0,0,0,0,0,0,0,0,0,0,0,0,0],"sum_hessian":[9.57E2,3.55E2,6.02E2,1.13E2,2.42E2,1.75E2,4.27E2,3.7E1,7.6E1,2.38E2,4E0,1.38E2,3.7E1,1.04E2,3.23E2],"tree_param":{"num_deleted":"0","num_feature":"23","num_nodes":"15","size_leaf_vector":"1"}},{"base_weights":[-1.2656511E-4,-5.7994697E-2,3.4037918E-2,-2.0736404E-2,-8.865034E-2,2.1874832E-2,1.1937436E-1,5.2907015E-3,-6.0141487E-3,-1.17252255E-2,-3.3507743E-3,2.4481404E-3,-2.5619024E-2,9.001923E-3,1.50351105E-2],"categories":[],"categories_nodes":[],"categories_segments":[],"categories_sizes":[],"default_left":[0,0,0,0,0,0,0,0,0,0,0,0,0,0,0],"id":5,"left_children":[1,3,5,7,9,11,13,-1,-1,-1,-1,-1,-1,-1,-1],"loss_changes":[1.8959733E0,4.047767E-1,6.232751E-1,4.7329372E-1,3.03622E-1,3.8968948E-1,5.466497E-2,0E0,0E0,0E0,0E0,0E0,0E0,0E0,0E0],"parents":[2147483647,0,0,1,1,2,2,3,3,4,4,5,5,6,6],"right_children":[2,4,6,8,10,12,14,-1,-1,-1,-1,-1,-1,-1,-1],"split_conditions":[7.5E-1,6E0,7E1,4.6E0,2.4E1,2E1,9E1,5.2907015E-3,-6.0141487E-3,-1.17252255E-2,-3.3507743E-3,2.4481404E-3,-2.5619024E-2,9.001923E-3,1.50351105E-2],"split_indices":[1,0,5,2,5,7,5,0,0,0,0,0,0,0,0],"split_type":[0,0,0,0,0,0,0,0,0,0,0,0,0,0,0],"sum_hessian":[9.57E2,3.55E2,6.02E2,1.61E2,1.94E2,5.28E2,7.4E1,5.6E1,1.05E2,1.27E2,6.7E1,5.24E2,4E0,4E1,3.4E1],"tree_param":{"num_deleted":"0","num_feature":"23","num_nodes":"15","size_leaf_vector":"1"}},{"base_weights":[-1.2948879E-4,-5.223959E-2,3.0635562E-2,-6.3938205E-3,-7.4656166E-2,7.732403E-2,1.1364985E-2,-6.9503174E-3,9.752809E-3,-1.473585E-2,-1.1519612E-3,8.031643E-3,-2.231726E-2,-5.350406E-3,3.2352284E-3],"categories":[],"categories_nodes":[],"categories_segments":[],"categories_sizes":[],"default_left":[0,0,0,0,0,0,0,0,0,0,0,0,0,0,0],"id":6,"left_children":[1,3,5,7,9,11,13,-1,-1,-1,-1,-1,-1,-1,-1],"loss_changes":[1.5374371E0,3.653856E-1,5.416486E-1,7.8067505E-1,1.0953542E0,1.7618442E-1,5.844212E-1,0E0,0E0,0E0,0E0,0E0,0E0,0E0,0E0],"parents":[2147483647,0,0,1,1,2,2,3,3,4,4,5,5,6,6],"right_children":[2,4,6,8,10,12,14,-1,-1,-1,-1,-1,-1,-1,-1],"split_conditions":[7.5E-1,4.6E0,4E0,1E1,2.5E1,4.241E1,9E0,-6.9503174E-3,9.752809E-3,-1.473585E-2,-1.1519612E-3,8.031643E-3,-2.231726E-2,-5.350406E-3,3.2352284E-3],"split_indices":[1,2,0,9,5,2,9,0,0,0,0,0,0,0,0],"split_type":[0,0,0,0,0,0,0,0,0,0,0,0,0,0,0],"sum_hessian":[9.57E2,3.55E2,6.02E2,1.17E2,2.38E2,1.75E2,4.27E2,7.3E1,4.4E1,1.1E2,1.28E2,1.74E2,1E0,1.04E2,3.23E2],"tree_param":{"num_deleted":"0","num_feature":"23","num_nodes":"15","size_leaf_vector":"1"}},{"base_weights":[-1.473143E-4,-4.7052372E-2,2.7544806E-2,-9.077976E-2,-2.634466E-2,1.8837605E-2,1.19445376E-1,-3.5287074E-3,-1.351423E-2,-1.1960772E-2,-1.5577897E-3,-2.1502156E-2,2.18013E-3,1.2478816E-2,-9.416183E-4],"categories":[],"categories_nodes":[],"categories_segments":[],"categories_sizes":[],"default_left":[0,0,0,0,0,0,0,0,0,0,0,0,0,0,0],"id":7,"left_children":[1,3,5,7,9,11,13,-1,-1,-1,-1,-1,-1,-1,-1],"loss_changes":[1.2456428E0,3.199643E-1,4.8026857E-1,2.7587593E-1,2.4214311E-1,3.8727164E-1,3.697598E-2,0E0,0E0,0E0,0E0,0E0,0E0,0E0,0E0],"parents":[2147483647,0,0,1,1,2,2,3,3,4,4,5,5,6,6],"right_children":[2,4,6,8,10,12,14,-1,-1,-1,-1,-1,-1,-1,-1],"split_conditions":[7.5E-1,6.5E-1,8.8E1,4.68E3,3.94E0,1.57E2,1.44E3,-3.5287074E-3,-1.351423E-2,-1.1960772E-2,-1.5577897E-3,-2.1502156E-2,2.18013E-3,1.2478816E-2,-9.416183E-4],"split_indices":[1,1,5,4,2,3,5,0,0,0,0,0,0,0,0],"split_type":[0,0,0,0,0,0,0,0,0,0,0,0,0,0,0],"sum_hessian":[9.57E2,3.55E2,6.02E2,1.13E2,2.42E2,5.51E2,5.1E1,5.1E1,6.2E1,2.4E1,2.18E2,6E0,5.45E2,4.9E1,2E0],"tree_param":{"num_deleted":"0","num_feature":"23","num_nodes":"15","size_leaf_vector":"1"}},{"base_weights":[-1.7263365E-4,-4.2432997E-2,2.4777386E-2,-9.632495E-3,-6.946504E-2,6.5680996E-2,7.899321E-3,5.259581E-3,-4.3004015E-3,-1.4612972E-2,-5.1781335E-3,6.9242823E-3,-1.6279839E-2,-5.056016E-3,2.6820141E-3],"categories":[],"categories_nodes":[],"categories_segments":[],"categories_sizes":[],"default_left":[0,0,0,0,0,0,0,0,0,0,0,0,0,0,0],"id":8,"left_children":[1,3,5,7,9,11,13,-1,-1,-1,-1,-1,-1,-1,-1],"loss_changes":[1.0111636E0,3.1498355E-1,4.1577658E-1,3.386796E-1,2.567978E-1,1.5450191E-1,4.7476745E-1,0E0,0E0,0E0,0E0,0E0,0E0,0E0,0E0],"parents":[2147483647,0,0,1,1,2,2,3,3,4,4,5,5,6,6],"right_children":[2,4,6,8,10,12,14,-1,-1,-1,-1,-1,-1,-1,-1],"split_conditions":[7.5E-1,6E0,4E0,3.24E3,1E0,3.033E1,9E0,5.259581E-3,-4.3004015E-3,-1.4612972E-2,-5.1781335E-3,6.9242823E-3,-1.6279839E-2,-5.056016E-3,2.6820141E-3],"split_indices":[1,0,0,4,20,2,9,0,0,0,0,0,0,0,0],"split_type":[0,0,0,0,0,0,0,0,0,0,0,0,0,0,0],"sum_hessian":[9.57E2,3.55E2,6.02E2,1.61E2,1.94E2,1.75E2,4.27E2,5.6E1,1.05E2,3.5E1,1.59E2,1.73E2,2E0,1.04E2,3.23E2],"tree_param":{"num_deleted":"0","num_feature":"23","num_nodes":"15","size_leaf_vector":"1"}},{"base_weights":[-1.8726902E-4,-1.9634444E-2,4.8680678E-2,1.6108448E-2,-7.343802E-2,3.772569E-2,9.045758E-2,-3.0186062E-3,6.90358E-3,-1.5979515E-2,-3.6366922E-3,2.466937E-3,4.963936E-3,-8.98388E-3,1.060542E-2],"categories":[],"categories_nodes":[],"categories_segments":[],"categories_sizes":[],"default_left":[0,0,0,0,0,0,0,0,0,0,0,0,0,0,0],"id":9,"left_children":[1,3,5,7,9,11,13,-1,-1,-1,-1,-1,-1,-1,-1],"loss_changes":[9.113849E-1,1.3204265E0,1.21530056E-1,1.0140353E0,8.7135935E-1,3.268501E-2,1.6700053E-1,0E0,0E0,0E0,0E0,0E0,0E0,0E0,0E0],"parents":[2147483647,0,0,1,1,2,2,3,3,4,4,5,5,6,6],"right_children":[2,4,6,8,10,12,14,-1,-1,-1,-1,-1,-1,-1,-1],"split_conditions":[5E1,1.252E1,8.8E1,9E0,2.3E1,6E1,9E0,-3.0186062E-3,6.90358E-3,-1.5979515E-2,-3.6366922E-3,2.466937E-3,4.963936E-3,-8.98388E-3,1.060542E-2],"split_indices":[5,2,5,9,5,5,9,0,0,0,0,0,0,0,0],"split_type":[0,0,0,0,0,0,0,0,0,0,0,0,0,0,0],"sum_hessian":[9.57E2,6.85E2,2.72E2,4.12E2,2.73E2,2.17E2,5.5E1,2.2E2,1.92E2,8.1E1,1.92E2,1.05E2,1.12E2,4E0,5.1E1],"tree_param":{"num_deleted":"0","num_feature":"23","num_nodes":"15","size_leaf_vector":"1"}},{"base_weights":[-1.7550295E-4,-1.7693922E-2,4.384578E-2,1.8370826E-2,-6.17547E-2,3.0947376E-2,7.299939E-2,-1.5764164E-3,7.7176774E-3,-1.0569322E-2,-1.741777E-3,1.7207349E-3,3.8064455E-3,-8.26517E-3,8.192669E-3],"categories":[],"categories_nodes":[],"categories_segments":[],"categories_sizes":[],"default_left":[0,0,0,0,0,0,0,0,0,0,0,0,0,0,0],"id":10,"left_children":[1,3,5,7,9,11,13,-1,-1,-1,-1,-1,-1,-1,-1],"loss_changes":[7.3956937E-1,1.0912164E0,1.0039842E-1,7.5999135E-1,6.001214E-1,1.8022686E-2,1.2210342E-1,0E0,0E0,0E0,0E0,0E0,0E0,0E0,0E0],"parents":[2147483647,0,0,1,1,2,2,3,3,4,4,5,5,6,6],"right_children":[2,4,6,8,10,12,14,-1,-1,-1,-1,-1,-1,-1,-1],"split_conditions":[5E1,5.13E0,7E1,1E1,3E1,9.25E2,9E0,-1.5764164E-3,7.7176774E-3,-1.0569322E-2,-1.741777E-3,1.7207349E-3,3.8064455E-3,-8.26517E-3,8.192669E-3],"split_indices":[5,2,5,9,5,3,9,0,0,0,0,0,0,0,0],"split_type":[0,0,0,0,0,0,0,0,0,0,0,0,0,0,0],"sum_hessian":[9.57E2,6.85E2,2.72E2,3.77E2,3.08E2,1.9E2,8.2E1,2.39E2,1.38E2,1.54E2,1.54E2,6.6E1,1.24E2,4E0,7.8E1],"tree_param":{"num_deleted":"0","num_feature":"23","num_nodes":"15","size_leaf_vector":"1"}},{"base_weights":[-1.5869767E-4,-6.8796396E-2,9.101488E-3,-2.7531E-2,-1.0176472E-1,1.1696319E-2,-2.3322906E-1,-2.220185E-2,-6.698325E-4,-1.759833E-2,-5.7647857E-3,-5.603799E-3,1.9426976E-3,-2.546508E-2,-3.092754E-3],"categories":[],"categories_nodes":[],"categories_segments":[],"categories_sizes":[],"default_left":[0,0,0,0,0,0,0,0,0,0,0,0,0,0,0],"id":11,"left_children":[1,3,5,7,9,11,13,-1,-1,-1,-1,-1,-1,-1,-1],"loss_changes":[6.095289E-1,1.5228969E-1,5.3406966E-1,2.0920098E-1,1.9613516E-1,4.393675E-1,3.1127155E-2,0E0,0E0,0E0,0E0,0E0,0E0,0E0,0E0],"parents":[2147483647,0,0,1,1,2,2,3,3,4,4,5,5,6,6],"right_children":[2,4,6,8,10,12,14,-1,-1,-1,-1,-1,-1,-1,-1],"split_conditions":[6.5E-1,4.68E3,2E1,3E0,2.1E1,3.94E0,1.1E1,-2.220185E-2,-6.698325E-4,-1.759833E-2,-5.7647857E-3,-5.603799E-3,1.9426976E-3,-2.546508E-2,-3.092754E-3],"split_indices":[1,4,7,22,5,2,0,0,0,0,0,0,0,0,0],"split_type":[0,0,0,0,0,0,0,0,0,0,0,0,0,0,0],"sum_hessian":[9.57E2,1.13E2,8.44E2,5.1E1,6.2E1,8.36E2,8E0,4E0,4.7E1,2.2E1,4E1,8.5E1,7.51E2,7E0,1E0],"tree_param":{"num_deleted":"0","num_feature":"23","num_nodes":"15","size_leaf_vector":"1"}},{"base_weights":[-2.2471922E-4,-1.5321823E-2,3.7712418E-2,1.3659547E-2,-5.8949504E-2,2.8375743E-2,7.338531E-2,-2.4356644E-3,5.7120263E-3,-1.2828767E-2,-2.9184322E-3,1.7542467E-3,3.828682E-3,-7.435944E-3,8.618029E-3],"categories":[],"categories_nodes":[],"categories_segments":[],"categories_sizes":[],"default_left":[0,0,0,0,0,0,0,0,0,0,0,0,0,0,0],"id":12,"left_children":[1,3,5,7,9,11,13,-1,-1,-1,-1,-1,-1,-1,-1],"loss_changes":[5.492636E-1,8.6817676E-1,8.884475E-2,6.837544E-1,5.6175447E-1,2.2734895E-2,1.1227015E-1,0E0,0E0,0E0,0E0,0E0,0E0,0E0,0E0],"parents":[2147483647,0,0,1,1,2,2,3,3,4,4,5,5,6,6],"right_children":[2,4,6,8,10,12,14,-1,-1,-1,-1,-1,-1,-1,-1],"split_conditions":[5E1,1.252E1,8.8E1,9E0,2.3E1,6E1,3.94E0,-2.4356644E-3,5.7120263E-3,-1.2828767E-2,-2.9184322E-3,1.7542467E-3,3.828682E-3,-7.435944E-3,8.618029E-3],"split_indices":[5,2,5,9,5,5,2,0,0,0,0,0,0,0,0],"split_type":[0,0,0,0,0,0,0,0,0,0,0,0,0,0,0],"sum_hessian":[9.57E2,6.85E2,2.72E2,4.12E2,2.73E2,2.17E2,5.5E1,2.2E2,1.92E2,8.1E1,1.92E2,1.05E2,1.12E2,4E0,5.1E1],"tree_param":{"num_deleted":"0","num_feature":"23","num_nodes":"15","size_leaf_vector":"1"}},{"base_weights":[-2.0820372E-4,-5.915131E-2,7.74413E-3,-2.0658836E-2,-8.998396E-2,1.0004129E-2,-2.0329624E-1,1.9742483E-3,-1.2163159E-2,-2.1248858E-2,-6.8301684E-3,1.293787E-3,-1.5162738E-2,-2.211437E-2,-3.0258268E-3],"categories":[],"categories_nodes":[],"categories_segments":[],"categories_sizes":[],"default_left":[0,0,0,0,0,0,0,0,0,0,0,0,0,0,0],"id":13,"left_children":[1,3,5,7,9,11,13,-1,-1,-1,-1,-1,-1,-1,-1],"loss_changes":[4.4950646E-1,1.3343906E-1,4.0505743E-1,2.1453181E-1,1.5282601E-1,3.9885443E-1,2.1103144E-2,0E0,0E0,0E0,0E0,0E0,0E0,0E0,0E0],"parents":[2147483647,0,0,1,1,2,2,3,3,4,4,5,5,6,6],"right_children":[2,4,6,8,10,12,14,-1,-1,-1,-1,-1,-1,-1,-1],"split_conditions":[6.5E-1,6E0,2E1,1E0,1E1,3.809E1,1.1E1,1.9742483E-3,-1.2163159E-2,-2.1248858E-2,-6.8301684E-3,1.293787E-3,-1.5162738E-2,-2.211437E-2,-3.0258268E-3],"split_indices":[1,0,7,8,9,2,0,0,0,0,0,0,0,0,0],"split_type":[0,0,0,0,0,0,0,0,0,0,0,0,0,0,0],"sum_hessian":[9.57E2,1.13E2,8.44E2,5.1E1,6.2E1,8.36E2,8E0,3.7E1,1.4E1,8E0,5.4E1,8.22E2,1.4E1,7E0,1E0],"tree_param":{"num_deleted":"0","num_feature":"23","num_nodes":"15","size_leaf_vector":"1"}},{"base_weights":[-2.6804014E-4,-1.3478665E-2,3.292887E-2,1.493444E-2,-4.819282E-2,2.4597704E-2,6.477289E-2,-5.1577752E-3,3.713065E-3,-8.1675965E-3,-1.439876E-3,1.2761548E-3,3.1502575E-3,-7.136289E-3,7.6617235E-3],"categories":[],"categories_nodes":[],"categories_segments":[],"categories_sizes":[],"default_left":[0,0,0,0,0,0,0,0,0,0,0,0,0,0,0],"id":14,"left_children":[1,3,5,7,9,11,13,-1,-1,-1,-1,-1,-1,-1,-1],"loss_changes":[4.2057654E-1,6.773469E-1,7.083306E-2,5.599636E-1,3.484671E-1,1.7414495E-2,9.5764235E-2,0E0,0E0,0E0,0E0,0E0,0E0,0E0,0E0],"parents":[2147483647,0,0,1,1,2,2,3,3,4,4,5,5,6,6],"right_children":[2,4,6,8,10,12,14,-1,-1,-1,-1,-1,-1,-1,-1],"split_conditions":[5E1,5.13E0,8.8E1,3.94E0,3E1,9.7E2,9E0,-5.1577752E-3,3.713065E-3,-8.1675965E-3,-1.439876E-3,1.2761548E-3,3.1502575E-3,-7.136289E-3,7.6617235E-3],"split_indices":[5,2,5,2,5,3,9,0,0,0,0,0,0,0,0],"split_type":[0,0,0,0,0,0,0,0,0,0,0,0,0,0,0],"sum_hessian":[9.57E2,6.85E2,2.72E2,3.77E2,3.08E2,2.17E2,5.5E1,9.4E1,2.83E2,1.54E2,1.54E2,8.1E1,1.36E2,4E0,5.1E1],"tree_param":{"num_deleted":"0","num_feature":"23","num_nodes":"15","size_leaf_vector":"1"}},{"base_weights":[-2.4760395E-4,2.5524924E-2,-1.4146997E-2,3.5873976E-2,-3.3011433E-2,-3.0048577E-2,1.3725578E-2,3.8259297E-3,-2.0189447E-2,-1.0601745E-2,-7.8296475E-4,-2.0474363E-4,-7.565277E-3,-9.519582E-4,2.8786005E-3],"categories":[],"categories_nodes":[],"categories_segments":[],"categories_sizes":[],"default_left":[0,0,0,0,0,0,0,0,0,0,0,0,0,0,0],"id":15,"left_children":[1,3,5,7,9,11,13,-1,-1,-1,-1,-1,-1,-1,-1],"loss_changes":[3.4353825E-1,2.0473166E-1,2.7653724E-1,1.6993046E-1,9.292943E-2,5.0680196E-1,7.9742655E-2,0E0,0E0,0E0,0E0,0E0,0E0,0E0,0E0],"parents":[2147483647,0,0,1,1,2,2,3,3,4,4,5,5,6,6],"right_children":[2,4,6,8,10,12,14,-1,-1,-1,-1,-1,-1,-1,-1],"split_conditions":[5E0,1E0,3.8E1,4.241E1,6.5E-1,3.36E3,8E-1,3.8259297E-3,-2.0189447E-2,-1.0601745E-2,-7.8296475E-4,-2.0474363E-4,-7.565277E-3,-9.519582E-4,2.8786005E-3],"split_indices":[0,8,5,2,1,4,1,0,0,0,0,0,0,0,0],"split_type":[0,0,0,0,0,0,0,0,0,0,0,0,0,0,0],"sum_hessian":[9.57E2,3.35E2,6.22E2,2.85E2,5E1,3.96E2,2.26E2,2.83E2,2E0,1.2E1,3.8E1,2.46E2,1.5E2,8.9E1,1.37E2],"tree_param":{"num_deleted":"0","num_feature":"23","num_nodes":"15","size_leaf_vector":"1"}},{"base_weights":[-2.5790464E-4,1.6043159E-3,-1.6072401E-1,3.8923891E-3,-1.319192E-1,-1.917972E-1,-1.3929804E-2,-4.7583203E-3,9.990822E-4,-1.8072069E-2,-2.0463318E-3,-2.0263983E-2,-5.252804E-3,9.928019E-4,-3.0822724E-3],"categories":[],"categories_nodes":[],"categories_segments":[],"categories_sizes":[],"default_left":[0,0,0,0,0,0,0,0,0,0,0,0,0,0,0],"id":16,"left_children":[1,3,5,7,9,11,13,-1,-1,-1,-1,-1,-1,-1,-1],"loss_changes":[2.8653055E-1,2.9013848E-1,4.7503322E-2,2.9336312E-1,8.332923E-2,2.9461086E-3,1.5150935E-3,0E0,0E0,0E0,0E0,0E0,0E0,0E0,0E0],"parents":[2147483647,0,0,1,1,2,2,3,3,4,4,5,5,6,6],"right_children":[2,4,6,8,10,12,14,-1,-1,-1,-1,-1,-1,-1,-1],"split_conditions":[2E1,3.809E1,2.1E1,3.94E0,4.4E1,9E1,9E0,-4.7583203E-3,9.990822E-4,-1.8072069E-2,-2.0463318E-3,-2.0263983E-2,-5.252804E-3,9.928019E-4,-3.0822724E-3],"split_indices":[7,2,5,2,5,6,0,0,0,0,0,0,0,0,0],"split_type":[0,0,0,0,0,0,0,0,0,0,0,0,0,0,0],"sum_hessian":[9.57E2,9.47E2,1E1,9.32E2,1.5E1,8E0,2E0,9.8E1,8.34E2,1E1,5E0,7E0,1E0,1E0,1E0],"tree_param":{"num_deleted":"0","num_feature":"23","num_nodes":"15","size_leaf_vector":"1"}},{"base_weights":[-2.858669E-4,-2.2390544E-2,1.2764798E-2,9.4596785E-4,-4.1662976E-2,-1.7372477E-1,1.4930061E-2,4.408446E-3,-2.226007E-3,-1.0930319E-2,-2.6183536E-3,-2.09562E-2,2.0649254E-3,1.6464597E-3,-1.7005185E-2],"categories":[],"categories_nodes":[],"categories_segments":[],"categories_sizes":[],"default_left":[0,0,0,0,0,0,0,0,0,0,0,0,0,0,0],"id":17,"left_children":[1,3,5,7,9,11,13,-1,-1,-1,-1,-1,-1,-1,-1],"loss_changes":[2.7665034E-1,1.6015087E-1,2.4608454E-1,1.6315521E-1,2.0130947E-1,5.308807E-2,1.7226501E-1,0E0,0E0,0E0,0E0,0E0,0E0,0E0,0E0],"parents":[2147483647,0,0,1,1,2,2,3,3,4,4,5,5,6,6],"right_children":[2,4,6,8,10,12,14,-1,-1,-1,-1,-1,-1,-1,-1],"split_conditions":[7.5E-1,6E0,1.57E2,3.24E3,1E0,6.975E3,2E1,4.408446E-3,-2.226007E-3,-1.0930319E-2,-2.6183536E-3,-2.09562E-2,2.0649254E-3,1.6464597E-3,-1.7005185E-2],"split_indices":[1,0,3,4,20,4,7,0,0,0,0,0,0,0,0],"split_type":[0,0,0,0,0,0,0,0,0,0,0,0,0,0,0],"sum_hessian":[9.57E2,3.55E2,6.02E2,1.61E2,1.94E2,6E0,5.96E2,5.6E1,1.05E2,3.5E1,1.59E2,5E0,1E0,5.92E2,4E0],"tree_param":{"num_deleted":"0","num_feature":"23","num_nodes":"15","size_leaf_vector":"1"}},{"base_weights":[-3.0489312E-4,-7.881928E-3,3.537213E-2,1.2375737E-2,-2.7815213E-2,-3.4507853E-3,4.524847E-2,7.042903E-4,1.9693024E-2,-1.6840605E-2,-1.9164272E-3,-5.5616233E-3,1.1576869E-3,3.6412624E-3,9.681216E-3],"categories":[],"categories_nodes":[],"categories_segments":[],"categories_sizes":[],"default_left":[0,0,0,0,0,0,0,0,0,0,0,0,0,0,0],"id":18,"left_children":[1,3,5,7,9,11,13,-1,-1,-1,-1,-1,-1,-1,-1],"loss_changes":[2.5925118E-1,3.1975144E-1,6.457211E-2,3.8540307E-1,4.8205358E-1,2.8081212E-2,5.752644E-2,0E0,0E0,0E0,0E0,0E0,0E0,0E0,0E0],"parents":[2147483647,0,0,1,1,2,2,3,3,4,4,5,5,6,6],"right_children":[2,4,6,8,10,12,14,-1,-1,-1,-1,-1,-1,-1,-1],"split_conditions":[6E1,3.36E3,5.45E1,3.1E1,1E1,7.5E-1,1.13E2,7.042903E-4,1.9693024E-2,-1.6840605E-2,-1.9164272E-3,-5.5616233E-3,1.1576869E-3,3.6412624E-3,9.681216E-3],"split_indices":[5,4,9,22,9,1,5,0,0,0,0,0,0,0,0],"split_type":[0,0,0,0,0,0,0,0,0,0,0,0,0,0,0],"sum_hessian":[9.57E2,7.9E2,1.67E2,3.92E2,3.98E2,3.4E1,1.33E2,3.82E2,1E1,2.2E1,3.76E2,7E0,2.7E1,1.15E2,1.8E1],"tree_param":{"num_deleted":"0","num_feature":"23","num_nodes":"15","size_leaf_vector":"1"}},{"base_weights":[-2.633876E-4,-4.249544E-2,5.434503E-3,-1.1826079E-2,-6.7135304E-2,-1.5502127E-1,7.153341E-3,2.0001188E-3,-9.166676E-3,-1.8663717E-2,-4.6359813E-3,-2.0156743E-2,5.260229E-4,9.387891E-4,-1.1592586E-2],"categories":[],"categories_nodes":[],"categories_segments":[],"categories_sizes":[],"default_left":[0,0,0,0,0,0,0,0,0,0,0,0,0,0,0],"id":19,"left_children":[1,3,5,7,9,11,13,-1,-1,-1,-1,-1,-1,-1,-1],"loss_changes":[2.3075795E-1,8.535457E-2,2.3415777E-1,1.3397118E-1,1.477583E-1,6.8204686E-2,2.3128556E-1,0E0,0E0,0E0,0E0,0E0,0E0,0E0,0E0],"parents":[2147483647,0,0,1,1,2,2,3,3,4,4,5,5,6,6],"right_children":[2,4,6,8,10,12,14,-1,-1,-1,-1,-1,-1,-1,-1],"split_conditions":[6.5E-1,6E0,1.57E2,1E0,1E1,6.975E3,3.809E1,2.0001188E-3,-9.166676E-3,-1.8663717E-2,-4.6359813E-3,-2.0156743E-2,5.260229E-4,9.387891E-4,-1.1592586E-2],"split_indices":[1,0,3,8,9,4,2,0,0,0,0,0,0,0,0],"split_type":[0,0,0,0,0,0,0,0,0,0,0,0,0,0,0],"sum_hessian":[9.57E2,1.13E2,8.44E2,5.1E1,6.2E1,8E0,8.36E2,3.7E1,1.4E1,8E0,5.4E1,6E0,2E0,8.22E2,1.4E1],"tree_param":{"num_deleted":"0","num_feature":"23","num_nodes":"15","size_leaf_vector":"1"}},{"base_weights":[-3.0044848E-4,1.4422805E-3,-1.2709439E-1,-4.2484373E-2,6.568809E-3,-1.6411245E-1,-2.7756095E-3,-6.456425E-3,3.7729957E-3,3.5308138E-3,-5.436869E-4,-1.7165748E-2,-4.8103645E-3,1.0699531E-3,-2.1600516E-3],"categories":[],"categories_nodes":[],"categories_segments":[],"categories_sizes":[],"default_left":[0,0,0,0,0,0,0,0,0,0,0,0,0,0,0],"id":20,"left_children":[1,3,5,7,9,11,13,-1,-1,-1,-1,-1,-1,-1,-1],"loss_changes":[2.1187015E-1,2.1330997E-1,5.9371024E-2,1.7777719E-1,2.9278174E-1,4.955232E-4,1.2457883E-3,0E0,0E0,0E0,0E0,0E0,0E0,0E0,0E0],"parents":[2147483647,0,0,1,1,2,2,3,3,4,4,5,5,6,6],"right_children":[2,4,6,8,10,12,14,-1,-1,-1,-1,-1,-1,-1,-1],"split_conditions":[1.5E1,3.94E0,2.1E1,9E0,4.6E0,9E1,9E0,-6.456425E-3,3.7729957E-3,3.5308138E-3,-5.436869E-4,-1.7165748E-2,-4.8103645E-3,1.0699531E-3,-2.1600516E-3],"split_indices":[7,2,5,9,2,6,0,0,0,0,0,0,0,0,0],"split_type":[0,0,0,0,0,0,0,0,0,0,0,0,0,0,0],"sum_hessian":[9.57E2,9.45E2,1.2E1,9.8E1,8.47E2,9E0,3E0,7.7E1,2.1E1,2.49E2,5.98E2,8E0,1E0,2E0,1E0],"tree_param":{"num_deleted":"0","num_feature":"23","num_nodes":"15","size_leaf_vector":"1"}},{"base_weights":[-2.94143E-4,-9.830131E-3,2.3669163E-2,1.0635359E-2,-3.4833774E-2,8.47691E-3,3.4185033E-2,-1.4047583E-3,5.3176875E-3,-7.127251E-3,-1.5179234E-3,-8.319092E-3,1.0878051E-3,2.5442885E-3,7.859838E-3],"categories":[],"categories_nodes":[],"categories_segments":[],"categories_sizes":[],"default_left":[0,0,0,0,0,0,0,0,0,0,0,0,0,0,0],"id":21,"left_children":[1,3,5,7,9,11,13,-1,-1,-1,-1,-1,-1,-1,-1],"loss_changes":[2.1914889E-1,3.5140473E-1,4.332465E-2,3.976658E-1,2.2021976E-1,2.577708E-2,6.0511366E-2,0E0,0E0,0E0,0E0,0E0,0E0,0E0,0E0],"parents":[2147483647,0,0,1,1,2,2,3,3,4,4,5,5,6,6],"right_children":[2,4,6,8,10,12,14,-1,-1,-1,-1,-1,-1,-1,-1],"split_conditions":[5E1,5.13E0,1.044E3,1E1,2.3E1,7E-1,9E1,-1.4047583E-3,5.3176875E-3,-7.127251E-3,-1.5179234E-3,-8.319092E-3,1.0878051E-3,2.5442885E-3,7.859838E-3],"split_indices":[5,2,3,9,5,1,5,0,0,0,0,0,0,0,0],"split_type":[0,0,0,0,0,0,0,0,0,0,0,0,0,0,0],"sum_hessian":[9.57E2,6.85E2,2.72E2,3.77E2,3.08E2,1.12E2,1.6E2,2.39E2,1.38E2,1.07E2,2.01E2,2E0,1.1E2,1.35E2,2.5E1],"tree_param":{"num_deleted":"0","num_feature":"23","num_nodes":"15","size_leaf_vector":"1"}},{"base_weights":[-2.663486E-4,1.5144324E-3,-1.0520448E-1,1.7776448E-2,-1.065477E-2,-1.4839432E-1,-8.4890425E-3,-1.90168E-3,2.838285E-3,-4.6147765E-3,1.6441882E-4,-1.6145278E-2,-8.904845E-4,-1.9876778E-3,2.4224818E-3],"categories":[],"categories_nodes":[],"categories_segments":[],"categories_sizes":[],"default_left":[0,0,0,0,0,0,0,0,0,0,0,0,0,0,0],"id":22,"left_children":[1,3,5,7,9,11,13,-1,-1,-1,-1,-1,-1,-1,-1],"loss_changes":[1.7918253E-1,1.8680511E-1,6.557426E-2,1.581983E-1,2.3580036E-1,1.8598989E-2,2.716732E-3,0E0,0E0,0E0,0E0,0E0,0E0,0E0,0E0],"parents":[2147483647,0,0,1,1,2,2,3,3,4,4,5,5,6,6],"right_children":[2,4,6,8,10,12,14,-1,-1,-1,-1,-1,-1,-1,-1],"split_conditions":[3.809E1,6E0,4.4E1,8.74E2,9E0,1E0,1E0,-1.90168E-3,2.838285E-3,-4.6147765E-3,1.6441882E-4,-1.6145278E-2,-8.904845E-4,-1.9876778E-3,2.4224818E-3],"split_indices":[2,0,5,3,9,15,17,0,0,0,0,0,0,0,0],"split_type":[0,0,0,0,0,0,0,0,0,0,0,0,0,0,0],"sum_hessian":[9.57E2,9.42E2,1.5E1,4.03E2,5.39E2,1E1,5E0,9E1,3.13E2,1.38E2,4.01E2,9E0,1E0,4E0,1E0],"tree_param":{"num_deleted":"0","num_feature":"23","num_nodes":"15","size_leaf_vector":"1"}},{"base_weights":[-2.6070813E-4,-3.672236E-2,4.658687E-3,-2.2101024E-2,-8.301699E-2,-1.3672799E-1,6.1734077E-3,-1.0734751E-2,-7.2285865E-4,-2.4897216E-2,-5.1898756E-3,-1.7806707E-2,5.305827E-4,7.695823E-4,-1.3474384E-2],"categories":[],"categories_nodes":[],"categories_segments":[],"categories_sizes":[],"default_left":[0,0,0,0,0,0,0,0,0,0,0,0,0,0,0],"id":23,"left_children":[1,3,5,7,9,11,13,-1,-1,-1,-1,-1,-1,-1,-1],"loss_changes":[1.7200682E-1,7.5330615E-2,1.8181044E-1,1.1079246E-1,1.2651291E-1,5.378872E-2,1.8060234E-1,0E0,0E0,0E0,0E0,0E0,0E0,0E0,0E0],"parents":[2147483647,0,0,1,1,2,2,3,3,4,4,5,5,6,6],"right_children":[2,4,6,8,10,12,14,-1,-1,-1,-1,-1,-1,-1,-1],"split_conditions":[6.5E-1,9E0,1.57E2,5E0,1E1,6.975E3,2E1,-1.0734751E-2,-7.2285865E-4,-2.4897216E-2,-5.1898756E-3,-1.7806707E-2,5.305827E-4,7.695823E-4,-1.3474384E-2],"split_indices":[1,0,3,22,9,4,7,0,0,0,0,0,0,0,0],"split_type":[0,0,0,0,0,0,0,0,0,0,0,0,0,0,0],"sum_hessian":[9.57E2,1.13E2,8.44E2,8.7E1,2.6E1,8E0,8.36E2,1.2E1,7.5E1,3E0,2.3E1,6E0,2E0,8.28E2,8E0],"tree_param":{"num_deleted":"0","num_feature":"23","num_nodes":"15","size_leaf_vector":"1"}},{"base_weights":[-3.092736E-4,-2.1706694E-3,8.7098725E-2,-1.09787015E-2,1.9923242E-2,1.7355325E-2,-1.6711116E-2,5.374038E-4,-3.1274015E-3,1.4208459E-3,4.23076E-3,-1.0419977E-2,4.5875972E-4],"categories":[],"categories_nodes":[],"categories_segments":[],"categories_sizes":[],"default_left":[0,0,0,0,0,0,0,0,0,0,0,0,0],"id":24,"left_children":[1,3,5,7,9,-1,11,-1,-1,-1,-1,-1,-1],"loss_changes":[1.5605651E-1,1.8295178E-1,1.8239687E-1,2.2319406E-1,3.36819E-2,0E0,1.9111983E-2,0E0,0E0,0E0,0E0,0E0,0E0],"parents":[2147483647,0,0,1,1,2,2,3,3,4,4,6,6],"right_children":[2,4,6,8,10,-1,12,-1,-1,-1,-1,-1,-1],"split_conditions":[3.1E1,5E1,4.15E0,3.36E3,8.8E1,1.7355325E-2,6E-1,5.374038E-4,-3.1274015E-3,1.4208459E-3,4.23076E-3,-1.0419977E-2,4.5875972E-4],"split_indices":[22,5,2,4,5,0,1,0,0,0,0,0,0],"split_type":[0,0,0,0,0,0,0,0,0,0,0,0,0],"sum_hessian":[9.57E2,9.38E2,1.9E1,6.71E2,2.67E2,1E1,9E0,3.72E2,2.99E2,2.14E2,5.3E1,1E0,8E0],"tree_param":{"num_deleted":"0","num_feature":"23","num_nodes":"13","size_leaf_vector":"1"}},{"base_weights":[-2.6743158E-4,1.326882E-3,-9.421558E-2,-2.1317355E-2,8.411203E-3,-1.3241832E-1,-8.474618E-3,1.4408701E-4,-1.369927E-2,4.070293E-3,-2.8522298E-4,-8.378972E-3,-1.9657094E-2,-1.8936883E-3,2.1918358E-3],"categories":[],"categories_nodes":[],"categories_segments":[],"categories_sizes":[],"default_left":[0,0,0,0,0,0,0,0,0,0,0,0,0,0,0],"id":25,"left_children":[1,3,5,7,9,11,13,-1,-1,-1,-1,-1,-1,-1,-1],"loss_changes":[1.4361694E-1,1.5145448E-1,5.1286444E-2,5.925246E-1,2.6162767E-1,1.7845526E-2,2.322942E-3,0E0,0E0,0E0,0E0,0E0,0E0,0E0,0E0],"parents":[2147483647,0,0,1,1,2,2,3,3,4,4,5,5,6,6],"right_children":[2,4,6,8,10,12,14,-1,-1,-1,-1,-1,-1,-1,-1],"split_conditions":[3.809E1,9E0,4.4E1,1E0,1.005E1,1E0,1E0,1.4408701E-4,-1.369927E-2,4.070293E-3,-2.8522298E-4,-8.378972E-3,-1.9657094E-2,-1.8936883E-3,2.1918358E-3],"split_indices":[2,9,5,18,2,16,17,0,0,0,0,0,0,0,0],"split_type":[0,0,0,0,0,0,0,0,0,0,0,0,0,0,0],"sum_hessian":[9.57E2,9.42E2,1.5E1,2.24E2,7.18E2,1E1,5E0,1.88E2,3.6E1,1.85E2,5.33E2,7E0,3E0,4E0,1E0],"tree_param":{"num_deleted":"0","num_feature":"23","num_nodes":"15","size_leaf_vector":"1"}},{"base_weights":[-2.7984148E-4,-1.228539E-1,8.81681E-4,-1.7361237E-2,-1.600273E-2,-4.4369463E-2,4.0910733E-3,-3.4086723E-3,1.9124628E-3,5.9964596E-3,-8.423128E-3,-3.8309116E-3,9.0992835E-4],"categories":[],"categories_nodes":[],"categories_segments":[],"categories_sizes":[],"default_left":[0,0,0,0,0,0,0,0,0,0,0,0,0],"id":26,"left_children":[1,3,5,-1,7,9,11,-1,-1,-1,-1,-1,-1],"loss_changes":[1.365012E-1,4.6034127E-2,1.3814877E-1,0E0,3.1928679E-3,2.6706445E-1,1.8891452E-1,0E0,0E0,0E0,0E0,0E0,0E0],"parents":[2147483647,0,0,1,1,2,2,4,4,5,5,6,6],"right_children":[2,4,6,-1,8,10,12,-1,-1,-1,-1,-1,-1],"split_conditions":[1.57E2,3.01E1,6E-1,-1.7361237E-2,2.9E1,4.6E0,3.94E0,-3.4086723E-3,1.9124628E-3,5.9964596E-3,-8.423128E-3,-3.8309116E-3,9.0992835E-4],"split_indices":[3,2,1,0,3,2,2,0,0,0,0,0,0],"split_type":[0,0,0,0,0,0,0,0,0,0,0,0,0],"sum_hessian":[9.57E2,8E0,9.49E2,5E0,3E0,6.2E1,8.87E2,2E0,1E0,1.7E1,4.5E1,9.3E1,7.94E2],"tree_param":{"num_deleted":"0","num_feature":"23","num_nodes":"13","size_leaf_vector":"1"}},{"base_weights":[-2.7712015E-4,1.099248E-3,-1.0041305E-1,2.608643E-3,-8.679737E-2,-1.3033772E-1,-4.981309E-4,-1.8733427E-3,9.396984E-4,-1.2170397E-2,-8.3357294E-4,-1.3721335E-2,-3.422852E-3,9.6239254E-4,-1.5432149E-3],"categories":[],"categories_nodes":[],"categories_segments":[],"categories_sizes":[],"default_left":[0,0,0,0,0,0,0,0,0,0,0,0,0,0,0],"id":27,"left_children":[1,3,5,7,9,11,13,-1,-1,-1,-1,-1,-1,-1,-1],"loss_changes":[1.3214567E-1,1.2573293E-1,3.8804054E-2,1.3505675E-1,4.2806767E-2,1.9114912E-3,7.531697E-4,0E0,0E0,0E0,0E0,0E0,0E0,0E0,0E0],"parents":[2147483647,0,0,1,1,2,2,3,3,4,4,5,5,6,6],"right_children":[2,4,6,8,10,12,14,-1,-1,-1,-1,-1,-1,-1,-1],"split_conditions":[1.5E1,3.809E1,2.1E1,9E0,4.4E1,9E1,9E0,-1.8733427E-3,9.396984E-4,-1.2170397E-2,-8.3357294E-4,-1.3721335E-2,-3.422852E-3,9.6239254E-4,-1.5432149E-3],"split_indices":[7,2,5,9,5,6,0,0,0,0,0,0,0,0,0],"split_type":[0,0,0,0,0,0,0,0,0,0,0,0,0,0,0],"sum_hessian":[9.57E2,9.45E2,1.2E1,9.3E2,1.5E1,9E0,3E0,2.24E2,7.06E2,1E1,5E0,8E0,1E0,2E0,1E0],"tree_param":{"num_deleted":"0","num_feature":"23","num_nodes":"15","size_leaf_vector":"1"}},{"base_weights":[-2.8248603E-4,-1.9299097E-3,7.707818E-2,-1.3056915E-2,1.1159092E-2,1.5484455E-1,-1.6172653E-2,2.9317508E-4,-2.640101E-3,-6.0375915E-3,1.4415145E-3,4.4848085E-3,1.613594E-2,-9.510547E-3,3.164934E-4],"categories":[],"categories_nodes":[],"categories_segments":[],"categories_sizes":[],"default_left":[0,0,0,0,0,0,0,0,0,0,0,0,0,0,0],"id":28,"left_children":[1,3,5,7,9,11,13,-1,-1,-1,-1,-1,-1,-1,-1],"loss_changes":[1.22241825E-1,1.3690297E-1,1.4753981E-1,1.0846134E-1,1.0149254E-1,6.4602494E-4,1.5564706E-2,0E0,0E0,0E0,0E0,0E0,0E0,0E0,0E0],"parents":[2147483647,0,0,1,1,2,2,3,3,4,4,5,5,6,6],"right_children":[2,4,6,8,10,12,14,-1,-1,-1,-1,-1,-1,-1,-1],"split_conditions":[3.1E1,8E-1,4.15E0,6E0,4.61E2,2E0,6E-1,2.9317508E-4,-2.640101E-3,-6.0375915E-3,1.4415145E-3,4.4848085E-3,1.613594E-2,-9.510547E-3,3.164934E-4],"split_indices":[22,1,2,0,3,0,1,0,0,0,0,0,0,0,0],"split_type":[0,0,0,0,0,0,0,0,0,0,0,0,0,0,0],"sum_hessian":[9.57E2,9.38E2,1.9E1,5.07E2,4.31E2,1E1,9E0,2.31E2,2.76E2,1.8E1,4.13E2,1E0,9E0,1E0,8E0],"tree_param":{"num_deleted":"0","num_feature":"23","num_nodes":"15","size_leaf_vector":"1"}},{"base_weights":[-2.495648E-4,-1.0926484E-1,7.834742E-4,-1.5602894E-2,-1.180248E-2,-2.829938E-2,4.743644E-3,-2.954819E-3,2.0717324E-3,-7.438831E-3,-1.4517227E-3,5.978357E-4,-1.09514175E-2],"categories":[],"categories_nodes":[],"categories_segments":[],"categories_sizes":[],"default_left":[0,0,0,0,0,0,0,0,0,0,0,0,0],"id":29,"left_children":[1,3,5,-1,7,9,11,-1,-1,-1,-1,-1,-1],"loss_changes":[1.07972726E-1,3.9178133E-2,1.09548636E-1,0E0,2.920507E-3,7.1333416E-2,1.18734956E-1,0E0,0E0,0E0,0E0,0E0,0E0],"parents":[2147483647,0,0,1,1,2,2,4,4,5,5,6,6],"right_children":[2,4,6,-1,8,10,12,-1,-1,-1,-1,-1,-1],"split_conditions":[1.57E2,3.01E1,6.5E-1,-1.5602894E-2,2.9E1,1.1E1,2E1,-2.954819E-3,2.0717324E-3,-7.438831E-3,-1.4517227E-3,5.978357E-4,-1.09514175E-2],"split_indices":[3,2,1,0,3,9,7,0,0,0,0,0,0],"split_type":[0,0,0,0,0,0,0,0,0,0,0,0,0],"sum_hessian":[9.57E2,8E0,9.49E2,5E0,3E0,1.13E2,8.36E2,2E0,1E0,2.5E1,8.8E1,8.28E2,8E0],"tree_param":{"num_deleted":"0","num_feature":"23","num_nodes":"13","size_leaf_vector":"1"}},{"base_weights":[-2.619031E-4,-1.7577359E-3,6.998054E-2,1.0825271E-2,-1.1279904E-2,1.4142184E-1,-1.5602937E-2,3.502272E-3,-3.6977124E-4,-4.2925305E-3,-4.922687E-5,7.3812394E-3,1.5754884E-2,-8.962433E-3,2.579921E-4],"categories":[],"categories_nodes":[],"categories_segments":[],"categories_sizes":[],"default_left":[0,0,0,0,0,0,0,0,0,0,0,0,0,0,0],"id":30,"left_children":[1,3,5,7,9,11,13,-1,-1,-1,-1,-1,-1,-1,-1],"loss_changes":[1.0078098E-1,1.12630755E-1,1.244905E-1,1.424543E-1,1.8261662E-1,3.6464632E-4,1.3690429E-2,0E0,0E0,0E0,0E0,0E0,0E0,0E0,0E0],"parents":[2147483647,0,0,1,1,2,2,3,3,4,4,5,5,6,6],"right_children":[2,4,6,8,10,12,14,-1,-1,-1,-1,-1,-1,-1,-1],"split_conditions":[3.1E1,6E0,4.15E0,4.6E0,9E0,5E0,6E-1,3.502272E-3,-3.6977124E-4,-4.2925305E-3,-4.922687E-5,7.3812394E-3,1.5754884E-2,-8.962433E-3,2.579921E-4],"split_indices":[22,0,2,2,9,0,1,0,0,0,0,0,0,0,0],"split_type":[0,0,0,0,0,0,0,0,0,0,0,0,0,0,0],"sum_hessian":[9.57E2,9.38E2,1.9E1,4.04E2,5.34E2,1E1,9E0,1.51E2,2.53E2,1.35E2,3.99E2,3E0,7E0,1E0,8E0],"tree_param":{"num_deleted":"0","num_feature":"23","num_nodes":"15","size_leaf_vector":"1"}},{"base_weights":[-2.2189776E-4,-4.949294E-3,2.2037579E-2,1.04365805E-2,-1.712148E-2,-9.371178E-3,3.00769E-2,-1.8699957E-3,2.7113892E-3,-1.22040985E-2,-1.0270645E-3,-4.182888E-3,7.2481384E-4,2.3220964E-3,7.035121E-3],"categories":[],"categories_nodes":[],"categories_segments":[],"categories_sizes":[],"default_left":[0,0,0,0,0,0,0,0,0,0,0,0,0,0,0],"id":31,"left_children":[1,3,5,7,9,11,13,-1,-1,-1,-1,-1,-1,-1,-1],"loss_changes":[1.0091881E-1,1.4831696E-1,4.2702705E-2,1.7057873E-1,3.1645012E-1,1.918305E-2,3.5366207E-2,0E0,0E0,0E0,0E0,0E0,0E0,0E0,0E0],"parents":[2147483647,0,0,1,1,2,2,3,3,4,4,5,5,6,6],"right_children":[2,4,6,8,10,12,14,-1,-1,-1,-1,-1,-1,-1,-1],"split_conditions":[6E1,2.28E3,5.45E1,1.08E3,1E1,1.1E1,1.13E2,-1.8699957E-3,2.7113892E-3,-1.22040985E-2,-1.0270645E-3,-4.182888E-3,7.2481384E-4,2.3220964E-3,7.035121E-3],"split_indices":[5,4,9,4,9,0,5,0,0,0,0,0,0,0,0],"split_type":[0,0,0,0,0,0,0,0,0,0,0,0,0,0,0],"sum_hessian":[9.57E2,7.9E2,1.67E2,3.49E2,4.41E2,3.4E1,1.33E2,1.27E2,2.22E2,2.6E1,4.15E2,1.1E1,2.3E1,1.15E2,1.8E1],"tree_param":{"num_deleted":"0","num_feature":"23","num_nodes":"15","size_leaf_vector":"1"}},{"base_weights":[-2.0649562E-4,1.1107831E-3,-7.78307E-2,1.3159206E-2,-8.715452E-3,-1.09757125E-1,-6.327132E-3,-5.162201E-3,1.8222806E-3,-5.97691E-6,-4.1734725E-3,-6.4127254E-3,-1.7357761E-2,-2.0019307E-3,1.4038145E-3],"categories":[],"categories_nodes":[],"categories_segments":[],"categories_sizes":[],"default_left":[0,0,0,0,0,0,0,0,0,0,0,0,0,0,0],"id":32,"left_children":[1,3,5,7,9,11,13,-1,-1,-1,-1,-1,-1,-1,-1],"loss_changes":[9.8044544E-2,1.1175704E-1,3.5831206E-2,1.4002377E-1,1.4861576E-1,2.0902276E-2,1.9541038E-3,0E0,0E0,0E0,0E0,0E0,0E0,0E0,0E0],"parents":[2147483647,0,0,1,1,2,2,3,3,4,4,5,5,6,6],"right_children":[2,4,6,8,10,12,14,-1,-1,-1,-1,-1,-1,-1,-1],"split_conditions":[3.809E1,2E0,4.4E1,6E-1,1.9E1,1E0,4.71E2,-5.162201E-3,1.8222806E-3,-5.97691E-6,-4.1734725E-3,-6.4127254E-3,-1.7357761E-2,-2.0019307E-3,1.4038145E-3],"split_indices":[2,21,5,1,22,16,3,0,0,0,0,0,0,0,0],"split_type":[0,0,0,0,0,0,0,0,0,0,0,0,0,0,0],"sum_hessian":[9.57E2,9.42E2,1.5E1,4.23E2,5.19E2,1E1,5E0,3E1,3.93E2,4.12E2,1.07E2,7E0,3E0,3E0,2E0],"tree_param":{"num_deleted":"0","num_feature":"23","num_nodes":"15","size_leaf_vector":"1"}},{"base_weights":[-2.1914563E-4,-9.9089235E-2,7.1774906E-4,-1.4207125E-1,-9.843916E-3,1.8469406E-3,-8.0812976E-2,-1.535203E-2,-4.2412966E-3,-2.6606938E-3,2.0222575E-3,3.1176175E-4,-7.157066E-3,-1.0807868E-2,7.554516E-4],"categories":[],"categories_nodes":[],"categories_segments":[],"categories_sizes":[],"default_left":[0,0,0,0,0,0,0,0,0,0,0,0,0,0,0],"id":33,"left_children":[1,3,5,7,9,11,13,-1,-1,-1,-1,-1,-1,-1,-1],"loss_changes":[8.881149E-2,3.3124946E-2,8.760988E-2,3.3471733E-4,2.5540816E-3,8.772918E-2,3.2138705E-2,0E0,0E0,0E0,0E0,0E0,0E0,0E0,0E0],"parents":[2147483647,0,0,1,1,2,2,3,3,4,4,5,5,6,6],"right_children":[2,4,6,8,10,12,14,-1,-1,-1,-1,-1,-1,-1,-1],"split_conditions":[1.57E2,3.01E1,1.5E1,9E0,2.9E1,3.809E1,2.1E1,-1.535203E-2,-4.2412966E-3,-2.6606938E-3,2.0222575E-3,3.1176175E-4,-7.157066E-3,-1.0807868E-2,7.554516E-4],"split_indices":[3,2,7,0,3,2,5,0,0,0,0,0,0,0,0],"split_type":[0,0,0,0,0,0,0,0,0,0,0,0,0,0,0],"sum_hessian":[9.57E2,8E0,9.49E2,5E0,3E0,9.37E2,1.2E1,4E0,1E0,2E0,1E0,9.22E2,1.5E1,9E0,3E0],"tree_param":{"num_deleted":"0","num_feature":"23","num_nodes":"15","size_leaf_vector":"1"}},{"base_weights":[-2.3596027E-4,-1.5600862E-3,6.194355E-2,-1.0550081E-2,9.015093E-3,1.2664396E-1,-1.5421244E-2,-4.40228E-3,-6.471778E-4,4.6188636E-3,4.3570535E-4,3.61934E-3,1.3206966E-2,-8.220436E-3,1.1329188E-4],"categories":[],"categories_nodes":[],"categories_segments":[],"categories_sizes":[],"default_left":[0,0,0,0,0,0,0,0,0,0,0,0,0,0,0],"id":34,"left_children":[1,3,5,7,9,11,13,-1,-1,-1,-1,-1,-1,-1,-1],"loss_changes":[7.897214E-2,8.9366585E-2,1.0206367E-1,6.906313E-2,7.460205E-2,6.182939E-4,1.1148516E-2,0E0,0E0,0E0,0E0,0E0,0E0,0E0,0E0],"parents":[2147483647,0,0,1,1,2,2,3,3,4,4,5,5,6,6],"right_children":[2,4,6,8,10,12,14,-1,-1,-1,-1,-1,-1,-1,-1],"split_conditions":[3.1E1,8E-1,4.15E0,3.94E0,2E0,2E0,6E-1,-4.40228E-3,-6.471778E-4,4.6188636E-3,4.3570535E-4,3.61934E-3,1.3206966E-2,-8.220436E-3,1.1329188E-4],"split_indices":[22,1,2,2,0,0,1,0,0,0,0,0,0,0,0],"split_type":[0,0,0,0,0,0,0,0,0,0,0,0,0,0,0],"sum_hessian":[9.57E2,9.38E2,1.9E1,5.07E2,4.31E2,1E1,9E0,5.4E1,4.53E2,4.7E1,3.84E2,1E0,9E0,1E0,8E0],"tree_param":{"num_deleted":"0","num_feature":"23","num_nodes":"15","size_leaf_vector":"1"}},{"base_weights":[-2.0325586E-4,-9.1454625E-2,6.614448E-4,-1.2177383E-1,9.775062E-3,-1.5204697E-2,5.5777263E-3,-1.3113181E-2,-3.2812983E-3,1.8993587E-3,-4.3309928E-4,3.7111758E-4,-1.1141809E-2,3.085439E-3,-3.1228975E-4],"categories":[],"categories_nodes":[],"categories_segments":[],"categories_sizes":[],"default_left":[0,0,0,0,0,0,0,0,0,0,0,0,0,0,0],"id":35,"left_children":[1,3,5,7,9,11,13,-1,-1,-1,-1,-1,-1,-1,-1],"loss_changes":[7.565159E-2,2.8813183E-2,7.418711E-2,1.5246272E-3,4.7237214E-4,4.099045E-1,1.5976027E-1,0E0,0E0,0E0,0E0,0E0,0E0,0E0,0E0],"parents":[2147483647,0,0,1,1,2,2,3,3,4,4,5,5,6,6],"right_children":[2,4,6,8,10,12,14,-1,-1,-1,-1,-1,-1,-1,-1],"split_conditions":[1.57E2,6.975E3,9E0,3.01E1,8E0,1E0,1.005E1,-1.3113181E-2,-3.2812983E-3,1.8993587E-3,-4.3309928E-4,3.7111758E-4,-1.1141809E-2,3.085439E-3,-3.1228975E-4],"split_indices":[3,4,9,2,0,18,2,0,0,0,0,0,0,0,0],"split_type":[0,0,0,0,0,0,0,0,0,0,0,0,0,0,0],"sum_hessian":[9.57E2,8E0,9.49E2,6E0,2E0,2.24E2,7.25E2,5E0,1E0,1E0,1E0,1.88E2,3.6E1,1.85E2,5.4E2],"tree_param":{"num_deleted":"0","num_feature":"23","num_nodes":"15","size_leaf_vector":"1"}},{"base_weights":[-2.0686648E-4,-4.1563986E-3,1.8390078E-2,7.2410544E-3,-1.5372044E-2,-8.653016E-3,2.5316333E-2,4.16483E-4,1.1369132E-2,-1.1875105E-2,-9.024328E-4,-3.8780083E-3,6.77106E-4,1.9206392E-3,6.12867E-3],"categories":[],"categories_nodes":[],"categories_segments":[],"categories_sizes":[],"default_left":[0,0,0,0,0,0,0,0,0,0,0,0,0,0,0],"id":36,"left_children":[1,3,5,7,9,11,13,-1,-1,-1,-1,-1,-1,-1,-1],"loss_changes":[7.044081E-2,1.01224676E-1,3.1686705E-2,1.2822022E-1,2.6076043E-1,1.6526459E-2,2.8273009E-2,0E0,0E0,0E0,0E0,0E0,0E0,0E0,0E0],"parents":[2147483647,0,0,1,1,2,2,3,3,4,4,5,5,6,6],"right_children":[2,4,6,8,10,12,14,-1,-1,-1,-1,-1,-1,-1,-1],"split_conditions":[6E1,3.36E3,5.45E1,3.1E1,1E1,1.1E1,1.13E2,4.16483E-4,1.1369132E-2,-1.1875105E-2,-9.024328E-4,-3.8780083E-3,6.77106E-4,1.9206392E-3,6.12867E-3],"split_indices":[5,4,9,22,9,0,5,0,0,0,0,0,0,0,0],"split_type":[0,0,0,0,0,0,0,0,0,0,0,0,0,0,0],"sum_hessian":[9.57E2,7.9E2,1.67E2,3.92E2,3.98E2,3.4E1,1.33E2,3.82E2,1E1,2.2E1,3.76E2,1.1E1,2.3E1,1.15E2,1.8E1],"tree_param":{"num_deleted":"0","num_feature":"23","num_nodes":"15","size_leaf_vector":"1"}},{"base_weights":[-1.8215102E-4,8.1631483E-4,-7.282573E-2,1.9231157E-3,-6.363668E-2,-9.726453E-2,6.4776987E-3,-1.3301972E-3,6.7657203E-4,-9.313709E-3,1.0535022E-4,-1.1369066E-2,-4.420267E-3,1.2537678E-3,-5.8511196E-4],"categories":[],"categories_nodes":[],"categories_segments":[],"categories_sizes":[],"default_left":[0,0,0,0,0,0,0,0,0,0,0,0,0,0,0],"id":37,"left_children":[1,3,5,7,9,11,13,-1,-1,-1,-1,-1,-1,-1,-1],"loss_changes":[6.954524E-2,6.760684E-2,2.582509E-2,6.873177E-2,3.0632302E-2,3.690578E-3,3.72209E-4,0E0,0E0,0E0,0E0,0E0,0E0,0E0,0E0],"parents":[2147483647,0,0,1,1,2,2,3,3,4,4,5,5,6,6],"right_children":[2,4,6,8,10,12,14,-1,-1,-1,-1,-1,-1,-1,-1],"split_conditions":[1.5E1,3.809E1,2.1E1,9E0,4.4E1,8E0,9E0,-1.3301972E-3,6.7657203E-4,-9.313709E-3,1.0535022E-4,-1.1369066E-2,-4.420267E-3,1.2537678E-3,-5.8511196E-4],"split_indices":[7,2,5,9,5,6,0,0,0,0,0,0,0,0,0],"split_type":[0,0,0,0,0,0,0,0,0,0,0,0,0,0,0],"sum_hessian":[9.57E2,9.45E2,1.2E1,9.3E2,1.5E1,9E0,3E0,2.24E2,7.06E2,1E1,5E0,6E0,3E0,2E0,1E0],"tree_param":{"num_deleted":"0","num_feature":"23","num_nodes":"15","size_leaf_vector":"1"}},{"base_weights":[-1.9001406E-4,2.9390801E-3,-2.2928258E-2,1.4211842E-2,-5.2506328E-3,-1.23980045E-2,-8.796747E-2,3.2155474E-3,2.3780565E-4,-2.8425197E-3,3.9417172E-4,-9.428408E-3,-6.233788E-4,-1.4777869E-2,-3.7302866E-3],"categories":[],"categories_nodes":[],"categories_segments":[],"categories_sizes":[],"default_left":[0,0,0,0,0,0,0,0,0,0,0,0,0,0,0],"id":38,"left_children":[1,3,5,7,9,11,13,-1,-1,-1,-1,-1,-1,-1,-1],"loss_changes":[6.822919E-2,7.790095E-2,7.83554E-2,7.530462E-2,1.0428307E-1,5.0393373E-2,4.2972423E-2,0E0,0E0,0E0,0E0,0E0,0E0,0E0,0E0],"parents":[2147483647,0,0,1,1,2,2,3,3,4,4,5,5,6,6],"right_children":[2,4,6,8,10,12,14,-1,-1,-1,-1,-1,-1,-1,-1],"split_conditions":[1E0,6E0,1.288E3,4.3E0,9E0,5E-1,5.1E1,3.2155474E-3,2.3780565E-4,-2.8425197E-3,3.9417172E-4,-9.428408E-3,-6.233788E-4,-1.4777869E-2,-3.7302866E-3],"split_indices":[8,0,3,2,9,1,9,0,0,0,0,0,0,0,0],"split_type":[0,0,0,0,0,0,0,0,0,0,0,0,0,0,0],"sum_hessian":[9.57E2,8.42E2,1.15E2,3.54E2,4.88E2,1E2,1.5E1,1.4E2,2.14E2,1.38E2,3.5E2,6E0,9.4E1,6E0,9E0],"tree_param":{"num_deleted":"0","num_feature":"23","num_nodes":"15","size_leaf_vector":"1"}},{"base_weights":[-1.9977147E-4,-8.402051E-2,5.9453E-4,-1.1210349E-1,9.5132785E-3,-2.1342544E-2,3.581665E-3,-1.2031836E-2,-3.1407147E-3,1.7959744E-3,-3.6898255E-4,-8.631375E-3,-1.285266E-3,4.508593E-4,-8.219669E-3],"categories":[],"categories_nodes":[],"categories_segments":[],"categories_sizes":[],"default_left":[0,0,0,0,0,0,0,0,0,0,0,0,0,0,0],"id":39,"left_children":[1,3,5,7,9,11,13,-1,-1,-1,-1,-1,-1,-1,-1],"loss_changes":[6.383257E-2,2.4706848E-2,6.232899E-2,8.6151063E-4,4.0082698E-4,6.1772823E-2,6.6920765E-2,0E0,0E0,0E0,0E0,0E0,0E0,0E0,0E0],"parents":[2147483647,0,0,1,1,2,2,3,3,4,4,5,5,6,6],"right_children":[2,4,6,8,10,12,14,-1,-1,-1,-1,-1,-1,-1,-1],"split_conditions":[1.57E2,6.975E3,6.5E-1,3.01E1,8E0,5E0,2E1,-1.2031836E-2,-3.1407147E-3,1.7959744E-3,-3.6898255E-4,-8.631375E-3,-1.285266E-3,4.508593E-4,-8.219669E-3],"split_indices":[3,4,1,2,0,22,7,0,0,0,0,0,0,0,0],"split_type":[0,0,0,0,0,0,0,0,0,0,0,0,0,0,0],"sum_hessian":[9.57E2,8E0,9.49E2,6E0,2E0,1.13E2,8.36E2,5E0,1E0,1E0,1E0,1.2E1,1.01E2,8.28E2,8E0],"tree_param":{"num_deleted":"0","num_feature":"23","num_nodes":"15","size_leaf_vector":"1"}},{"base_weights":[-2.1259618E-4,-2.0620078E-2,2.7343226E-3,-1.0552161E-2,-1.605086E-2,-1.1581148E-2,7.975766E-3,-7.7145733E-3,-1.0811001E-3,5.04369E-4,-9.618961E-3,2.5428564E-3,3.9022816E-5],"categories":[],"categories_nodes":[],"categories_segments":[],"categories_sizes":[],"default_left":[0,0,0,0,0,0,0,0,0,0,0,0,0],"id":40,"left_children":[1,3,5,-1,7,9,11,-1,-1,-1,-1,-1,-1],"loss_changes":[5.766973E-2,4.5246243E-2,6.297064E-2,0E0,3.630089E-2,3.1697056E-1,8.1276834E-2,0E0,0E0,0E0,0E0,0E0,0E0],"parents":[2147483647,0,0,1,1,2,2,4,4,5,5,6,6],"right_children":[2,4,6,-1,8,10,12,-1,-1,-1,-1,-1,-1],"split_conditions":[7.39E2,5E-1,9E0,-1.0552161E-2,1.57E2,1E0,1.005E1,-7.7145733E-3,-1.0811001E-3,5.04369E-4,-9.618961E-3,2.5428564E-3,3.9022816E-5],"split_indices":[3,1,9,0,3,18,2,0,0,0,0,0,0],"split_type":[0,0,0,0,0,0,0,0,0,0,0,0,0],"sum_hessian":[9.57E2,1.2E2,8.37E2,5E0,1.15E2,2.24E2,6.13E2,8E0,1.07E2,1.88E2,3.6E1,1.85E2,4.28E2],"tree_param":{"num_deleted":"0","num_feature":"23","num_nodes":"13","size_leaf_vector":"1"}},{"base_weights":[-2.1835962E-4,7.612482E-4,-5.7940345E-2,9.840954E-3,-6.6436683E-3,-8.483754E-2,1.027902E-3,1.7258165E-3,-3.2150522E-3,-1.896467E-3,8.973962E-4,-4.2983154E-3,-1.4733694E-2,-1.2308955E-3,1.8467745E-3],"categories":[],"categories_nodes":[],"categories_segments":[],"categories_sizes":[],"default_left":[0,0,0,0,0,0,0,0,0,0,0,0,0,0,0],"id":41,"left_children":[1,3,5,7,9,11,13,-1,-1,-1,-1,-1,-1,-1,-1],"loss_changes":[5.4214124E-2,6.346747E-2,2.546449E-2,1.3261378E-1,1.002311E-1,2.244161E-2,1.6228748E-3,0E0,0E0,0E0,0E0,0E0,0E0,0E0,0E0],"parents":[2147483647,0,0,1,1,2,2,3,3,4,4,5,5,6,6],"right_children":[2,4,6,8,10,12,14,-1,-1,-1,-1,-1,-1,-1,-1],"split_conditions":[3.809E1,2E0,4.4E1,1.1E1,2.5E1,1E0,4.71E2,1.7258165E-3,-3.2150522E-3,-1.896467E-3,8.973962E-4,-4.2983154E-3,-1.4733694E-2,-1.2308955E-3,1.8467745E-3],"split_indices":[2,21,5,0,5,16,3,0,0,0,0,0,0,0,0],"split_type":[0,0,0,0,0,0,0,0,0,0,0,0,0,0,0],"sum_hessian":[9.57E2,9.42E2,1.5E1,4.23E2,5.19E2,1E1,5E0,3.6E2,6.3E1,2.9E2,2.29E2,7E0,3E0,3E0,2E0],"tree_param":{"num_deleted":"0","num_feature":"23","num_nodes":"15","size_leaf_vector":"1"}},{"base_weights":[-2.1834415E-4,2.441742E-3,-1.954795E-2,3.674005E-3,-5.764786E-2,-1.054566E-2,-8.43828E-2,1.3957878E-3,-3.789457E-4,-8.218168E-3,1.027753E-4,-7.983248E-3,-5.436862E-4,-1.5366352E-2,-2.8819793E-3],"categories":[],"categories_nodes":[],"categories_segments":[],"categories_sizes":[],"default_left":[0,0,0,0,0,0,0,0,0,0,0,0,0,0,0],"id":42,"left_children":[1,3,5,7,9,11,13,-1,-1,-1,-1,-1,-1,-1,-1],"loss_changes":[4.930657E-2,6.263274E-2,6.681493E-2,6.352786E-2,2.4556596E-2,3.6025107E-2,4.9463674E-2,0E0,0E0,0E0,0E0,0E0,0E0,0E0,0E0],"parents":[2147483647,0,0,1,1,2,2,3,3,4,4,5,5,6,6],"right_children":[2,4,6,8,10,12,14,-1,-1,-1,-1,-1,-1,-1,-1],"split_conditions":[1E0,3.04E1,1.382E3,6E0,4.4E1,5E-1,5.1E1,1.3957878E-3,-3.789457E-4,-8.218168E-3,1.027753E-4,-7.983248E-3,-5.436862E-4,-1.5366352E-2,-2.8819793E-3],"split_indices":[8,2,3,0,5,1,9,0,0,0,0,0,0,0,0],"split_type":[0,0,0,0,0,0,0,0,0,0,0,0,0,0,0],"sum_hessian":[9.57E2,8.42E2,1.15E2,8.26E2,1.6E1,1.02E2,1.3E1,3.47E2,4.79E2,1.1E1,5E0,6E0,9.6E1,5E0,8E0],"tree_param":{"num_deleted":"0","num_feature":"23","num_nodes":"15","size_leaf_vector":"1"}},{"base_weights":[-2.3184666E-4,-1.245628E-3,4.737678E-2,4.177867E-3,-1.2478472E-2,1.0622158E-1,-1.042547E-2,2.1813596E-3,-2.487632E-4,-7.0860297E-3,4.8177564E-4,1.2716435E-2,4.301633E-3,-7.807246E-3,4.1464745E-4],"categories":[],"categories_nodes":[],"categories_segments":[],"categories_sizes":[],"default_left":[0,0,0,0,0,0,0,0,0,0,0,0,0,0,0],"id":43,"left_children":[1,3,5,7,9,11,13,-1,-1,-1,-1,-1,-1,-1,-1],"loss_changes":[4.6296634E-2,5.7257205E-2,6.913465E-2,7.4581556E-2,3.0933568E-1,7.7667832E-3,1.1166955E-2,0E0,0E0,0E0,0E0,0E0,0E0,0E0,0E0],"parents":[2147483647,0,0,1,1,2,2,3,3,4,4,5,5,6,6],"right_children":[2,4,6,8,10,12,14,-1,-1,-1,-1,-1,-1,-1,-1],"split_conditions":[3.1E1,1.8E1,1.26E3,4.08E0,1E1,8E-1,6E-1,2.1813596E-3,-2.487632E-4,-7.0860297E-3,4.8177564E-4,1.2716435E-2,4.301633E-3,-7.807246E-3,4.1464745E-4],"split_indices":[22,22,4,2,9,1,1,0,0,0,0,0,0,0,0],"split_type":[0,0,0,0,0,0,0,0,0,0,0,0,0,0,0],"sum_hessian":[9.57E2,9.38E2,1.9E1,6.33E2,3.05E2,9E0,1E1,1.73E2,4.6E2,6.9E1,2.36E2,6E0,3E0,1E0,9E0],"tree_param":{"num_deleted":"0","num_feature":"23","num_nodes":"15","size_leaf_vector":"1"}},{"base_weights":[-2.0347876E-4,-1.5104073E-2,2.915944E-3,-1.0564665E-2,-1.04534775E-2,-2.4093185E-2,5.482446E-3,-6.9217654E-3,-6.881749E-4,-5.6551355E-3,1.3029408E-3,2.819685E-3,2.3729124E-5],"categories":[],"categories_nodes":[],"categories_segments":[],"categories_sizes":[],"default_left":[0,0,0,0,0,0,0,0,0,0,0,0,0],"id":44,"left_children":[1,3,5,-1,7,9,11,-1,-1,-1,-1,-1,-1],"loss_changes":[4.4573084E-2,6.87944E-2,5.5102047E-2,0E0,3.2896124E-2,8.38771E-2,8.6370215E-2,0E0,0E0,0E0,0E0,0E0,0E0],"parents":[2147483647,0,0,1,1,2,2,4,4,5,5,6,6],"right_children":[2,4,6,-1,8,10,12,-1,-1,-1,-1,-1,-1],"split_conditions":[8.44E2,4E-1,3E0,-1.0564665E-2,1.57E2,2.1E1,7E0,-6.9217654E-3,-6.881749E-4,-5.6551355E-3,1.3029408E-3,2.819685E-3,2.3729124E-5],"split_indices":[3,1,22,0,3,5,22,0,0,0,0,0,0],"split_type":[0,0,0,0,0,0,0,0,0,0,0,0,0],"sum_hessian":[9.57E2,1.65E2,7.92E2,7E0,1.58E2,6.8E1,7.24E2,8E0,1.5E2,3.6E1,3.2E1,1.35E2,5.89E2],"tree_param":{"num_deleted":"0","num_feature":"23","num_nodes":"13","size_leaf_vector":"1"}},{"base_weights":[-2.03668E-4,5.6261016E-4,-5.5949476E-2,-1.8744627E-2,2.8159756E-3,-7.653293E-2,9.496525E-3,-3.970284E-4,-7.6904767E-3,2.7131804E-3,-2.5760438E-4,-3.4731526E-3,-9.8611945E-3,1.7606526E-3,9.2434886E-5],"categories":[],"categories_nodes":[],"categories_segments":[],"categories_sizes":[],"default_left":[0,0,0,0,0,0,0,0,0,0,0,0,0,0,0],"id":45,"left_children":[1,3,5,7,9,11,13,-1,-1,-1,-1,-1,-1,-1,-1],"loss_changes":[4.0954173E-2,4.1209705E-2,1.8239152E-2,8.476318E-2,1.1125237E-1,5.804397E-3,2.618069E-4,0E0,0E0,0E0,0E0,0E0,0E0,0E0,0E0],"parents":[2147483647,0,0,1,1,2,2,3,3,4,4,5,5,6,6],"right_children":[2,4,6,8,10,12,14,-1,-1,-1,-1,-1,-1,-1,-1],"split_conditions":[1.5E1,3.94E0,2.1E1,2.3E1,4.08E0,2.531E1,6.5E-1,-3.970284E-4,-7.6904767E-3,2.7131804E-3,-2.5760438E-4,-3.4731526E-3,-9.8611945E-3,1.7606526E-3,9.2434886E-5],"split_indices":[7,2,5,22,2,2,1,0,0,0,0,0,0,0,0],"split_type":[0,0,0,0,0,0,0,0,0,0,0,0,0,0,0],"sum_hessian":[9.57E2,9.45E2,1.2E1,9.8E1,8.47E2,9E0,3E0,7.9E1,1.9E1,1.53E2,6.94E2,4E0,5E0,1E0,2E0],"tree_param":{"num_deleted":"0","num_feature":"23","num_nodes":"15","size_leaf_vector":"1"}},{"base_weights":[-2.0116326E-4,-5.2662343E-3,8.005909E-3,6.177376E-3,-2.483741E-2,-7.843669E-3,8.696353E-3,3.6274275E-4,9.022772E-3,-9.675649E-3,-1.6314689E-3,3.6832176E-3,6.77875E-4],"categories":[],"categories_nodes":[],"categories_segments":[],"categories_sizes":[],"default_left":[0,0,0,0,0,0,0,0,0,0,0,0,0],"id":46,"left_children":[1,3,5,7,9,-1,11,-1,-1,-1,-1,-1,-1],"loss_changes":[3.986565E-2,1.3296463E-1,2.2526393E-2,8.0044225E-2,1.3265668E-1,0E0,1.9389337E-2,0E0,0E0,0E0,0E0,0E0,0E0],"parents":[2147483647,0,0,1,1,2,2,3,3,4,4,6,6],"right_children":[2,4,6,8,10,-1,12,-1,-1,-1,-1,-1,-1],"split_conditions":[3.8E1,3.36E3,4E-1,3.1E1,1E1,-7.843669E-3,4E1,3.6274275E-4,9.022772E-3,-9.675649E-3,-1.6314689E-3,3.6832176E-3,6.77875E-4],"split_indices":[5,4,1,22,9,0,5,0,0,0,0,0,0],"split_type":[0,0,0,0,0,0,0,0,0,0,0,0,0],"sum_hessian":[9.57E2,5.92E2,3.65E2,3.74E2,2.18E2,2E0,3.63E2,3.64E2,1E1,2.2E1,1.96E2,2.2E1,3.41E2],"tree_param":{"num_deleted":"0","num_feature":"23","num_nodes":"13","size_leaf_vector":"1"}},{"base_weights":[-1.866907E-4,5.9292756E-4,-4.9238224E-2,2.9437006E-3,-1.6212106E-2,-8.276559E-2,-9.556081E-3,-1.0418643E-3,7.908302E-4,-7.1270484E-4,-7.2548273E-3,-2.800476E-3,-1.3052522E-2,1.956728E-3,-3.0943553E-3],"categories":[],"categories_nodes":[],"categories_segments":[],"categories_sizes":[],"default_left":[0,0,0,0,0,0,0,0,0,0,0,0,0,0,0],"id":47,"left_children":[1,3,5,7,9,11,13,-1,-1,-1,-1,-1,-1,-1,-1],"loss_changes":[3.6664523E-2,3.7340276E-2,1.9165646E-2,5.5077173E-2,5.885375E-2,1.7267525E-2,5.588482E-3,0E0,0E0,0E0,0E0,0E0,0E0,0E0,0E0],"parents":[2147483647,0,0,1,1,2,2,3,3,4,4,5,5,6,6],"right_children":[2,4,6,8,10,12,14,-1,-1,-1,-1,-1,-1,-1,-1],"split_conditions":[4.099E1,1E0,5E0,9E0,1.288E3,2E0,1.026E4,-1.0418643E-3,7.908302E-4,-7.1270484E-4,-7.2548273E-3,-2.800476E-3,-1.3052522E-2,1.956728E-3,-3.0943553E-3],"split_indices":[2,8,20,9,3,20,4,0,0,0,0,0,0,0,0],"split_type":[0,0,0,0,0,0,0,0,0,0,0,0,0,0,0],"sum_hessian":[9.57E2,9.43E2,1.4E1,8.28E2,1.15E2,7E0,7E0,2.24E2,6.04E2,1E2,1.5E1,4E0,3E0,3E0,4E0],"tree_param":{"num_deleted":"0","num_feature":"23","num_nodes":"15","size_leaf_vector":"1"}},{"base_weights":[-1.9433387E-4,-6.2267806E-2,3.939352E-4,-8.8258855E-2,1.9133905E-2,1.1000225E-3,-5.0583284E-2,-9.66712E-3,-1.8892408E-3,2.363956E-3,5.061299E-4,-1.5379015E-3,3.330436E-4,-6.9103576E-3,8.363262E-4],"categories":[],"categories_nodes":[],"categories_segments":[],"categories_sizes":[],"default_left":[0,0,0,0,0,0,0,0,0,0,0,0,0,0,0],"id":48,"left_children":[1,3,5,7,9,11,13,-1,-1,-1,-1,-1,-1,-1,-1],"loss_changes":[3.5006765E-2,2.0730175E-2,3.4250293E-2,2.2583902E-3,7.05719E-5,3.4527473E-2,1.4770124E-2,0E0,0E0,0E0,0E0,0E0,0E0,0E0,0E0],"parents":[2147483647,0,0,1,1,2,2,3,3,4,4,5,5,6,6],"right_children":[2,4,6,8,10,12,14,-1,-1,-1,-1,-1,-1,-1,-1],"split_conditions":[1.57E2,6.975E3,1.5E1,9E0,8E0,6.5E-1,2.1E1,-9.66712E-3,-1.8892408E-3,2.363956E-3,5.061299E-4,-1.5379015E-3,3.330436E-4,-6.9103576E-3,8.363262E-4],"split_indices":[3,4,7,0,0,1,5,0,0,0,0,0,0,0,0],"split_type":[0,0,0,0,0,0,0,0,0,0,0,0,0,0,0],"sum_hessian":[9.57E2,8E0,9.49E2,6E0,2E0,9.37E2,1.2E1,5E0,1E0,1E0,1E0,1.11E2,8.26E2,9E0,3E0],"tree_param":{"num_deleted":"0","num_feature":"23","num_nodes":"15","size_leaf_vector":"1"}},{"base_weights":[-1.9158763E-4,3.7617324E-4,-6.0100615E-2,-1.5197903E-2,2.5605746E-3,-1.5612309E-2,-1.0362322E-2,9.2134904E-4,-2.3721529E-3,-9.5549796E-4,7.0252287E-4,3.932491E-3,-5.7458975E-3],"categories":[],"categories_nodes":[],"categories_segments":[],"categories_sizes":[],"default_left":[0,0,0,0,0,0,0,0,0,0,0,0,0],"id":49,"left_children":[1,3,5,7,9,-1,11,-1,-1,-1,-1,-1,-1],"loss_changes":[3.260802E-2,3.2357946E-2,4.1366152E-2,2.456316E-2,4.517965E-2,0E0,1.8640283E-2,0E0,0E0,0E0,0E0,0E0,0E0],"parents":[2147483647,0,0,1,1,2,2,3,3,4,4,6,6],"right_children":[2,4,6,8,10,-1,12,-1,-1,-1,-1,-1,-1],"split_conditions":[1.077E4,7.39E2,4E0,3.6E3,9E0,-1.5612309E-2,7E0,9.2134904E-4,-2.3721529E-3,-9.5549796E-4,7.0252287E-4,3.932491E-3,-5.7458975E-3],"split_indices":[4,3,0,4,9,0,0,0,0,0,0,0,0],"split_type":[0,0,0,0,0,0,0,0,0,0,0,0,0],"sum_hessian":[9.57E2,9.49E2,8E0,1.16E2,8.33E2,2E0,6E0,3E1,8.6E1,2.24E2,6.09E2,3E0,3E0],"tree_param":{"num_deleted":"0","num_feature":"23","num_nodes":"13","size_leaf_vector":"1"}},{"base_weights":[-1.9237898E-4,-1.8327065E-2,1.5260815E-3,-1.1424067E-1,-1.0714133E-2,1.8251823E-2,-2.5272162E-3,-2.0387657E-2,4.3354095E-3,4.3002227E-3,-2.418632E-3,5.9373965E-3,2.643885E-4,-2.914659E-3,2.1198961E-4],"categories":[],"categories_nodes":[],"categories_segments":[],"categories_sizes":[],"default_left":[0,0,0,0,0,0,0,0,0,0,0,0,0,0,0],"id":50,"left_children":[1,3,5,7,9,11,13,-1,-1,-1,-1,-1,-1,-1,-1],"loss_changes":[2.9882833E-2,5.9381254E-2,5.9434034E-2,9.359578E-2,5.7486843E-2,1.0959626E-1,8.739626E-2,0E0,0E0,0E0,0E0,0E0,0E0,0E0,0E0],"parents":[2147483647,0,0,1,1,2,2,3,3,4,4,5,5,6,6],"right_children":[2,4,6,8,10,12,14,-1,-1,-1,-1,-1,-1,-1,-1],"split_conditions":[3E0,3.9E0,7E0,8E0,1.26E3,4.08E0,1.08E3,-2.0387657E-2,4.3354095E-3,4.3002227E-3,-2.418632E-3,5.9373965E-3,2.643885E-4,-2.914659E-3,2.1198961E-4],"split_indices":[22,2,22,0,4,2,4,0,0,0,0,0,0,0,0],"split_type":[0,0,0,0,0,0,0,0,0,0,0,0,0,0,0],"sum_hessian":[9.57E2,8.2E1,8.75E2,5E0,7.7E1,1.7E2,7.05E2,3E0,2E0,1.5E1,6.2E1,4.6E1,1.24E2,1.04E2,6.01E2],"tree_param":{"num_deleted":"0","num_feature":"23","num_nodes":"15","size_leaf_vector":"1"}},{"base_weights":[-1.842959E-4,-1.6088223E-3,2.2789482E-2,7.237564E-3,-7.3262323E-3,-2.8523466E-2,3.1935878E-2,5.0485935E-3,2.1986065E-4,-7.821811E-3,-3.6524143E-4,-6.6117863E-3,6.8704607E-3,1.9837474E-3,4.935779E-3],"categories":[],"categories_nodes":[],"categories_segments":[],"categories_sizes":[],"default_left":[0,0,0,0,0,0,0,0,0,0,0,0,0,0,0],"id":51,"left_children":[1,3,5,7,9,11,13,-1,-1,-1,-1,-1,-1,-1,-1],"loss_changes":[3.1388894E-2,4.5725334E-2,2.719332E-2,7.725298E-2,1.4269799E-1,3.743967E-2,9.138182E-3,0E0,0E0,0E0,0E0,0E0,0E0,0E0,0E0],"parents":[2147483647,0,0,1,1,2,2,3,3,4,4,5,5,6,6],"right_children":[2,4,6,8,10,12,14,-1,-1,-1,-1,-1,-1,-1,-1],"split_conditions":[8.8E1,2.28E3,5.13E0,2E0,1E1,1.1E1,1.13E2,5.0485935E-3,2.1986065E-4,-7.821811E-3,-3.6524143E-4,-6.6117863E-3,6.8704607E-3,1.9837474E-3,4.935779E-3],"split_indices":[5,4,2,0,9,0,5,0,0,0,0,0,0,0,0],"split_type":[0,0,0,0,0,0,0,0,0,0,0,0,0,0,0],"sum_hessian":[9.57E2,9.02E2,5.5E1,3.54E2,5.48E2,8E0,4.7E1,3.6E1,3.18E2,2.6E1,5.22E2,6E0,2E0,2.9E1,1.8E1],"tree_param":{"num_deleted":"0","num_feature":"23","num_nodes":"15","size_leaf_vector":"1"}},{"base_weights":[-1.6141984E-4,5.398617E-4,-4.428464E-2,6.6815955E-3,-4.480863E-3,-6.8233825E-2,3.0114353E-3,1.2880194E-3,-2.8483623E-3,4.479479E-4,-1.8271044E-3,-2.890201E-3,-1.20006045E-2,-8.685887E-4,1.7604054E-3],"categories":[],"categories_nodes":[],"categories_segments":[],"categories_sizes":[],"default_left":[0,0,0,0,0,0,0,0,0,0,0,0,0,0,0],"id":52,"left_children":[1,3,5,7,9,11,13,-1,-1,-1,-1,-1,-1,-1,-1],"loss_changes":[2.966711E-2,2.9139081E-2,1.7196015E-2,9.3006276E-2,6.433551E-2,1.6894534E-2,1.1770742E-3,0E0,0E0,0E0,0E0,0E0,0E0,0E0,0E0],"parents":[2147483647,0,0,1,1,2,2,3,3,4,4,5,5,6,6],"right_children":[2,4,6,8,10,12,14,-1,-1,-1,-1,-1,-1,-1,-1],"split_conditions":[4.099E1,2E0,4.4E1,1.1E1,1.2E1,1E0,4.71E2,1.2880194E-3,-2.8483623E-3,4.479479E-4,-1.8271044E-3,-2.890201E-3,-1.20006045E-2,-8.685887E-4,1.7604054E-3],"split_indices":[2,21,5,0,22,16,3,0,0,0,0,0,0,0,0],"split_type":[0,0,0,0,0,0,0,0,0,0,0,0,0,0,0],"sum_hessian":[9.57E2,9.43E2,1.4E1,4.24E2,5.19E2,9E0,5E0,3.61E2,6.3E1,3.15E2,2.04E2,6E0,3E0,3E0,2E0],"tree_param":{"num_deleted":"0","num_feature":"23","num_nodes":"15","size_leaf_vector":"1"}},{"base_weights":[-1.629402E-4,3.62972E-4,-5.565779E-2,-5.459684E-2,8.8768045E-4,-1.464714E-2,-8.786564E-3,-7.889725E-3,2.0303072E-3,-1.6666226E-3,2.5808043E-4,3.551139E-3,-5.0887875E-3],"categories":[],"categories_nodes":[],"categories_segments":[],"categories_sizes":[],"default_left":[0,0,0,0,0,0,0,0,0,0,0,0,0],"id":53,"left_children":[1,3,5,7,9,-1,11,-1,-1,-1,-1,-1,-1],"loss_changes":[2.7979832E-2,2.7444448E-2,3.702193E-2,1.7982747E-2,2.8040137E-2,0E0,1.4862113E-2,0E0,0E0,0E0,0E0,0E0,0E0],"parents":[2147483647,0,0,1,1,2,2,3,3,4,4,6,6],"right_children":[2,4,6,8,10,-1,12,-1,-1,-1,-1,-1,-1],"split_conditions":[1.077E4,1.57E2,4E0,6.975E3,3E0,-1.464714E-2,7E0,-7.889725E-3,2.0303072E-3,-1.6666226E-3,2.5808043E-4,3.551139E-3,-5.0887875E-3],"split_indices":[4,3,0,4,22,0,0,0,0,0,0,0,0],"split_type":[0,0,0,0,0,0,0,0,0,0,0,0,0],"sum_hessian":[9.57E2,9.49E2,8E0,8E0,9.41E2,2E0,6E0,6E0,2E0,8.2E1,8.59E2,3E0,3E0],"tree_param":{"num_deleted":"0","num_feature":"23","num_nodes":"13","size_leaf_vector":"1"}},{"base_weights":[-1.7113522E-4,-9.4773725E-4,3.6298886E-2,-6.373482E-2,-2.0327473E-4,8.7252006E-2,-1.3322028E-2,-1.275863E-2,7.990186E-3,4.320535E-4,-9.4276335E-4,1.0763348E-2,2.9771419E-3,-7.3910328E-3,1.2783408E-5],"categories":[],"categories_nodes":[],"categories_segments":[],"categories_sizes":[],"default_left":[0,0,0,0,0,0,0,0,0,0,0,0,0,0,0],"id":54,"left_children":[1,3,5,7,9,11,13,-1,-1,-1,-1,-1,-1,-1,-1],"loss_changes":[2.716754E-2,4.387837E-2,5.172918E-2,1.1107996E-1,3.88072E-2,8.5109845E-3,8.973395E-3,0E0,0E0,0E0,0E0,0E0,0E0,0E0,0E0],"parents":[2147483647,0,0,1,1,2,2,3,3,4,4,5,5,6,6],"right_children":[2,4,6,8,10,12,14,-1,-1,-1,-1,-1,-1,-1,-1],"split_conditions":[3.1E1,8E0,1.26E3,1.32E3,1.8E1,8E-1,6E-1,-1.275863E-2,7.990186E-3,4.320535E-4,-9.4276335E-4,1.0763348E-2,2.9771419E-3,-7.3910328E-3,1.2783408E-5],"split_indices":[22,9,4,4,22,1,1,0,0,0,0,0,0,0,0],"split_type":[0,0,0,0,0,0,0,0,0,0,0,0,0,0,0],"sum_hessian":[9.57E2,9.38E2,1.9E1,1E1,9.28E2,9E0,1E1,7E0,3E0,6.23E2,3.05E2,6E0,3E0,1E0,9E0],"tree_param":{"num_deleted":"0","num_feature":"23","num_nodes":"15","size_leaf_vector":"1"}},{"base_weights":[-1.5290266E-4,4.0700694E-4,-4.839303E-2,1.0635237E-3,-4.0499236E-2,-2.0269778E-2,-9.254128E-3,-8.6937315E-4,4.1541137E-4,-7.0168623E-3,-5.767446E-4,-2.829066E-3,1.7938197E-3],"categories":[],"categories_nodes":[],"categories_segments":[],"categories_sizes":[],"default_left":[0,0,0,0,0,0,0,0,0,0,0,0,0],"id":55,"left_children":[1,3,5,7,9,11,-1,-1,-1,-1,-1,-1,-1],"loss_changes":[2.5895385E-2,2.550221E-2,1.1781722E-2,2.8201517E-2,1.5052369E-2,2.9591764E-3,0E0,0E0,0E0,0E0,0E0,0E0,0E0],"parents":[2147483647,0,0,1,1,2,2,3,3,4,4,5,5],"right_children":[2,4,6,8,10,12,-1,-1,-1,-1,-1,-1,-1],"split_conditions":[2E1,4.099E1,3.01E1,9E0,5E0,5.75E1,-9.254128E-3,-8.6937315E-4,4.1541137E-4,-7.0168623E-3,-5.767446E-4,-2.829066E-3,1.7938197E-3],"split_indices":[7,2,2,9,20,9,0,0,0,0,0,0,0],"split_type":[0,0,0,0,0,0,0,0,0,0,0,0,0],"sum_hessian":[9.57E2,9.47E2,1E1,9.33E2,1.4E1,7E0,3E0,2.24E2,7.09E2,7E0,7E0,6E0,1E0],"tree_param":{"num_deleted":"0","num_feature":"23","num_nodes":"13","size_leaf_vector":"1"}},{"base_weights":[-1.5672974E-4,6.349797E-3,-4.2437557E-3,4.5521494E-2,1.5968734E-3,-6.933409E-2,-1.1146565E-3,6.2692794E-3,-2.0589961E-3,-1.2206086E-3,1.7931977E-3,1.1390499E-2,-8.854941E-3,-8.210868E-3,1.4045631E-4],"categories":[],"categories_nodes":[],"categories_segments":[],"categories_sizes":[],"default_left":[0,0,0,0,0,0,0,0,0,0,0,0,0,0,0],"id":56,"left_children":[1,3,5,7,9,11,13,-1,-1,-1,-1,-1,-1,-1,-1],"loss_changes":[2.550241E-2,6.881394E-2,1.1988677E-1,4.669963E-2,7.4850366E-2,1.0515317E-1,1.14990816E-1,0E0,0E0,0E0,0E0,0E0,0E0,0E0,0E0],"parents":[2147483647,0,0,1,1,2,2,3,3,4,4,5,5,6,6],"right_children":[2,4,6,8,10,12,14,-1,-1,-1,-1,-1,-1,-1,-1],"split_conditions":[2.28E3,2E0,1E1,1.1E1,9E0,6E-1,5E-1,6.2692794E-3,-2.0589961E-3,-1.2206086E-3,1.7931977E-3,1.1390499E-2,-8.854941E-3,-8.210868E-3,1.4045631E-4],"split_indices":[4,0,9,9,9,1,1,0,0,0,0,0,0,0,0],"split_type":[0,0,0,0,0,0,0,0,0,0,0,0,0,0,0],"sum_hessian":[9.57E2,3.69E2,5.88E2,3.9E1,3.3E2,2.6E1,5.62E2,3.1E1,8E0,1.79E2,1.51E2,2E0,2.4E1,1.6E1,5.46E2],"tree_param":{"num_deleted":"0","num_feature":"23","num_nodes":"15","size_leaf_vector":"1"}},{"base_weights":[-1.4183296E-4,-5.06972E-2,3.372619E-4,-8.0388695E-2,6.5143406E-3,8.2314934E-4,-5.0556432E-2,-9.15382E-3,-1.2320608E-3,-1.4407724E-3,1.8290937E-3,2.7110928E-4,-1.2913065E-3,-1.3644867E-2,-6.523124E-4],"categories":[],"categories_nodes":[],"categories_segments":[],"categories_sizes":[],"default_left":[0,0,0,0,0,0,0,0,0,0,0,0,0,0,0],"id":57,"left_children":[1,3,5,7,9,11,13,-1,-1,-1,-1,-1,-1,-1,-1],"loss_changes":[2.3220642E-2,1.5811946E-2,2.3533793E-2,3.4257434E-3,1.2490936E-3,2.4464078E-2,3.3149004E-2,0E0,0E0,0E0,0E0,0E0,0E0,0E0,0E0],"parents":[2147483647,0,0,1,1,2,2,3,3,4,4,5,5,6,6],"right_children":[2,4,6,8,10,12,14,-1,-1,-1,-1,-1,-1,-1,-1],"split_conditions":[1.57E2,3.01E1,1.077E4,9E0,6E0,1E0,4E0,-9.15382E-3,-1.2320608E-3,-1.4407724E-3,1.8290937E-3,2.7110928E-4,-1.2913065E-3,-1.3644867E-2,-6.523124E-4],"split_indices":[3,2,4,0,0,8,0,0,0,0,0,0,0,0,0],"split_type":[0,0,0,0,0,0,0,0,0,0,0,0,0,0,0],"sum_hessian":[9.57E2,8E0,9.49E2,5E0,3E0,9.41E2,8E0,4E0,1E0,1E0,2E0,8.28E2,1.13E2,2E0,6E0],"tree_param":{"num_deleted":"0","num_feature":"23","num_nodes":"15","size_leaf_vector":"1"}},{"base_weights":[-1.5404863E-4,-1.3497849E-3,1.912995E-2,4.814304E-3,-7.4565914E-3,-3.0437961E-2,2.6832264E-2,1.0873802E-2,2.92671E-4,-4.0183645E-3,-2.4191313E-5,-7.215661E-3,6.314532E-3,1.6042332E-3,4.1675544E-3],"categories":[],"categories_nodes":[],"categories_segments":[],"categories_sizes":[],"default_left":[0,0,0,0,0,0,0,0,0,0,0,0,0,0,0],"id":58,"left_children":[1,3,5,7,9,11,13,-1,-1,-1,-1,-1,-1,-1,-1],"loss_changes":[2.2115938E-2,3.4027435E-2,2.2196824E-2,8.795635E-2,1.0718657E-1,3.5789695E-2,7.179171E-3,0E0,0E0,0E0,0E0,0E0,0E0,0E0,0E0],"parents":[2147483647,0,0,1,1,2,2,3,3,4,4,5,5,6,6],"right_children":[2,4,6,8,10,12,14,-1,-1,-1,-1,-1,-1,-1,-1],"split_conditions":[8.8E1,1.489E1,1.4E1,4E-1,2.3E1,1.1E1,1.13E2,1.0873802E-2,2.92671E-4,-4.0183645E-3,-2.4191313E-5,-7.215661E-3,6.314532E-3,1.6042332E-3,4.1675544E-3],"split_indices":[5,2,9,1,5,0,5,0,0,0,0,0,0,0,0],"split_type":[0,0,0,0,0,0,0,0,0,0,0,0,0,0,0],"sum_hessian":[9.57E2,9.02E2,5.5E1,4.49E2,4.53E2,7E0,4.8E1,7E0,4.42E2,8.1E1,3.72E2,5E0,2E0,2.9E1,1.9E1],"tree_param":{"num_deleted":"0","num_feature":"23","num_nodes":"15","size_leaf_vector":"1"}},{"base_weights":[-1.2611505E-4,-8.183055E-4,3.2378532E-2,-5.7088252E-2,-1.511497E-4,7.0935786E-2,-2.2628754E-2,3.966606E-3,-1.4432787E-2,3.823448E-4,-8.2557177E-4,1.0416366E-2,4.1301395E-3,-5.8694235E-3,-3.9394415E-4],"categories":[],"categories_nodes":[],"categories_segments":[],"categories_sizes":[],"default_left":[0,0,0,0,0,0,0,0,0,0,0,0,0,0,0],"id":59,"left_children":[1,3,5,7,9,11,13,-1,-1,-1,-1,-1,-1,-1,-1],"loss_changes":[2.1580927E-2,3.52422E-2,4.402379E-2,9.857382E-2,2.995688E-2,7.5141527E-3,5.835129E-3,0E0,0E0,0E0,0E0,0E0,0E0,0E0,0E0],"parents":[2147483647,0,0,1,1,2,2,3,3,4,4,5,5,6,6],"right_children":[2,4,6,8,10,12,14,-1,-1,-1,-1,-1,-1,-1,-1],"split_conditions":[3.1E1,8E0,4.02E3,3E0,1.8E1,1.08E3,7E-1,3.966606E-3,-1.4432787E-2,3.823448E-4,-8.2557177E-4,1.0416366E-2,4.1301395E-3,-5.8694235E-3,-3.9394415E-4],"split_indices":[22,9,4,20,22,4,1,0,0,0,0,0,0,0,0],"split_type":[0,0,0,0,0,0,0,0,0,0,0,0,0,0,0],"sum_hessian":[9.57E2,9.38E2,1.9E1,1E1,9.28E2,1.1E1,8E0,5E0,5E0,6.23E2,3.05E2,4E0,7E0,2E0,6E0],"tree_param":{"num_deleted":"0","num_feature":"23","num_nodes":"15","size_leaf_vector":"1"}},{"base_weights":[-1.1625287E-4,-1.5817894E-2,1.3715924E-3,-1.0316669E-1,-8.8959625E-3,1.4790165E-2,-1.880458E-3,-1.8966218E-2,4.654954E-3,3.796917E-3,-2.0657012E-3,5.1038465E-3,1.04248385E-4,-1.9196261E-3,3.562388E-4],"categories":[],"categories_nodes":[],"categories_segments":[],"categories_sizes":[],"default_left":[0,0,0,0,0,0,0,0,0,0,0,0,0,0,0],"id":60,"left_children":[1,3,5,7,9,11,13,-1,-1,-1,-1,-1,-1,-1,-1],"loss_changes":[2.240212E-2,4.926589E-2,3.8254593E-2,8.652736E-2,4.3776616E-2,8.516124E-2,6.660694E-2,0E0,0E0,0E0,0E0,0E0,0E0,0E0,0E0],"parents":[2147483647,0,0,1,1,2,2,3,3,4,4,5,5,6,6],"right_children":[2,4,6,8,10,12,14,-1,-1,-1,-1,-1,-1,-1,-1],"split_conditions":[3E0,3.9E0,7E0,8E0,1.26E3,4.08E0,9E0,-1.8966218E-2,4.654954E-3,3.796917E-3,-2.0657012E-3,5.1038465E-3,1.04248385E-4,-1.9196261E-3,3.562388E-4],"split_indices":[22,2,22,0,4,2,9,0,0,0,0,0,0,0,0],"split_type":[0,0,0,0,0,0,0,0,0,0,0,0,0,0,0],"sum_hessian":[9.57E2,8.2E1,8.75E2,5E0,7.7E1,1.7E2,7.05E2,3E0,2E0,1.5E1,6.2E1,4.6E1,1.24E2,1.68E2,5.37E2],"tree_param":{"num_deleted":"0","num_feature":"23","num_nodes":"15","size_leaf_vector":"1"}},{"base_weights":[-1.1396198E-4,3.420593E-4,-4.823688E-2,8.521375E-3,-2.5596383E-3,-1.2723431E-2,-7.489856E-3,-1.2489832E-3,2.2240502E-3,-1.1155773E-3,5.7787995E-4,-7.887541E-3,1.7553637E-3],"categories":[],"categories_nodes":[],"categories_segments":[],"categories_sizes":[],"default_left":[0,0,0,0,0,0,0,0,0,0,0,0,0],"id":61,"left_children":[1,3,5,7,9,-1,11,-1,-1,-1,-1,-1,-1],"loss_changes":[2.1039883E-2,2.2569017E-2,2.8017228E-2,7.205338E-2,5.038266E-2,0E0,1.3898755E-2,0E0,0E0,0E0,0E0,0E0,0E0],"parents":[2147483647,0,0,1,1,2,2,3,3,4,4,6,6],"right_children":[2,4,6,8,10,-1,12,-1,-1,-1,-1,-1,-1],"split_conditions":[1.077E4,4.08E0,4E0,3.94E0,3.8E1,-1.2723431E-2,4E-1,-1.2489832E-3,2.2240502E-3,-1.1155773E-3,5.7787995E-4,-7.887541E-3,1.7553637E-3],"split_indices":[4,2,0,2,5,0,1,0,0,0,0,0,0],"split_type":[0,0,0,0,0,0,0,0,0,0,0,0,0],"sum_hessian":[9.57E2,9.49E2,8E0,2.48E2,7.01E2,2E0,6E0,9.8E1,1.5E2,3.45E2,3.56E2,1E0,5E0],"tree_param":{"num_deleted":"0","num_feature":"23","num_nodes":"13","size_leaf_vector":"1"}},{"base_weights":[-1.2179069E-4,4.5514054E-4,-3.6421876E-2,-1.4491054E-2,1.8937472E-3,-1.07079055E-2,-7.320818E-2,-3.7652513E-3,6.894158E-4,-1.1246644E-3,4.3065302E-4,-2.2765053E-3,1.3069079E-3,-1.5370668E-3,-1.2592214E-2],"categories":[],"categories_nodes":[],"categories_segments":[],"categories_sizes":[],"default_left":[0,0,0,0,0,0,0,0,0,0,0,0,0,0,0],"id":62,"left_children":[1,3,5,7,9,11,13,-1,-1,-1,-1,-1,-1,-1,-1],"loss_changes":[2.0079637E-2,2.0325044E-2,1.3404924E-2,4.1370533E-2,2.7378064E-2,3.1643442E-3,1.6357556E-2,0E0,0E0,0E0,0E0,0E0,0E0,0E0,0E0],"parents":[2147483647,0,0,1,1,2,2,3,3,4,4,5,5,6,6],"right_children":[2,4,6,8,10,12,14,-1,-1,-1,-1,-1,-1,-1,-1],"split_conditions":[4.099E1,3E0,1E0,2.1E1,1.08E3,6E0,5.73E2,-3.7652513E-3,6.894158E-4,-1.1246644E-3,4.3065302E-4,-2.2765053E-3,1.3069079E-3,-1.5370668E-3,-1.2592214E-2],"split_indices":[2,22,16,5,4,20,3,0,0,0,0,0,0,0,0],"split_type":[0,0,0,0,0,0,0,0,0,0,0,0,0,0,0],"sum_hessian":[9.57E2,9.43E2,1.4E1,8.2E1,8.61E2,9E0,5E0,3.9E1,4.3E1,1.33E2,7.28E2,6E0,3E0,3E0,2E0],"tree_param":{"num_deleted":"0","num_feature":"23","num_nodes":"15","size_leaf_vector":"1"}},{"base_weights":[-1.2929802E-4,5.5751717E-3,-3.7125316E-3,9.072702E-2,3.92232E-3,-6.1028276E-2,-9.57225E-4,1.231848E-2,-5.2009807E-3,3.740006E-3,-2.1008575E-5,1.0599586E-2,-7.863004E-3,-7.335895E-3,1.2946701E-4],"categories":[],"categories_nodes":[],"categories_segments":[],"categories_sizes":[],"default_left":[0,0,0,0,0,0,0,0,0,0,0,0,0,0,0],"id":63,"left_children":[1,3,5,7,9,11,13,-1,-1,-1,-1,-1,-1,-1,-1],"loss_changes":[1.9602649E-2,5.1719192E-2,9.295789E-2,3.8837254E-2,5.0364926E-2,8.771228E-2,9.188712E-2,0E0,0E0,0E0,0E0,0E0,0E0,0E0,0E0],"parents":[2147483647,0,0,1,1,2,2,3,3,4,4,5,5,6,6],"right_children":[2,4,6,8,10,12,14,-1,-1,-1,-1,-1,-1,-1,-1],"split_conditions":[2.28E3,4E-1,1E1,4.6E0,2E0,6E-1,5E-1,1.231848E-2,-5.2009807E-3,3.740006E-3,-2.1008575E-5,1.0599586E-2,-7.863004E-3,-7.335895E-3,1.2946701E-4],"split_indices":[4,1,9,2,0,1,1,0,0,0,0,0,0,0,0],"split_type":[0,0,0,0,0,0,0,0,0,0,0,0,0,0,0],"sum_hessian":[9.57E2,3.69E2,5.88E2,6E0,3.63E2,2.6E1,5.62E2,5E0,1E0,3.9E1,3.24E2,2E0,2.4E1,1.6E1,5.46E2],"tree_param":{"num_deleted":"0","num_feature":"23","num_nodes":"15","size_leaf_vector":"1"}},{"base_weights":[-1.0972918E-4,3.144864E-4,-4.4875845E-2,7.811347E-3,-2.3451045E-3,-1.1912542E-2,-6.643768E-3,4.678203E-4,9.084207E-3,-2.9749873E-3,-6.127934E-6,-7.1479008E-3,1.6075274E-3],"categories":[],"categories_nodes":[],"categories_segments":[],"categories_sizes":[],"default_left":[0,0,0,0,0,0,0,0,0,0,0,0,0],"id":64,"left_children":[1,3,5,7,9,-1,11,-1,-1,-1,-1,-1,-1],"loss_changes":[1.8206997E-2,1.8959971E-2,2.4756996E-2,6.4351685E-2,4.393474E-2,0E0,1.1460006E-2,0E0,0E0,0E0,0E0,0E0,0E0],"parents":[2147483647,0,0,1,1,2,2,3,3,4,4,6,6],"right_children":[2,4,6,8,10,-1,12,-1,-1,-1,-1,-1,-1],"split_conditions":[1.077E4,4.08E0,4E0,2E1,6E-1,-1.1912542E-2,4E-1,4.678203E-4,9.084207E-3,-2.9749873E-3,-6.127934E-6,-7.1479008E-3,1.6075274E-3],"split_indices":[4,2,0,9,1,0,1,0,0,0,0,0,0],"split_type":[0,0,0,0,0,0,0,0,0,0,0,0,0],"sum_hessian":[9.57E2,9.49E2,8E0,2.48E2,7.01E2,2E0,6E0,2.4E2,8E0,5.3E1,6.48E2,1E0,5E0],"tree_param":{"num_deleted":"0","num_feature":"23","num_nodes":"13","size_leaf_vector":"1"}},{"base_weights":[-1.1011191E-4,-4.479654E-2,3.133491E-4,-8.643782E-3,-9.5696E-3,7.828344E-4,-3.9834794E-2,-2.672129E-3,1.6489187E-3,1.342365E-4,-3.3811033E-3,-1.3599694E-3,-8.23463E-3],"categories":[],"categories_nodes":[],"categories_segments":[],"categories_sizes":[],"default_left":[0,0,0,0,0,0,0,0,0,0,0,0,0],"id":65,"left_children":[1,3,5,-1,7,9,11,-1,-1,-1,-1,-1,-1],"loss_changes":[1.8142233E-2,1.2374876E-2,1.7937703E-2,0E0,3.122326E-3,1.8240329E-2,1.1148343E-2,0E0,0E0,0E0,0E0,0E0,0E0],"parents":[2147483647,0,0,1,1,2,2,4,4,5,5,6,6],"right_children":[2,4,6,-1,8,10,12,-1,-1,-1,-1,-1,-1],"split_conditions":[1.57E2,2.531E1,2E1,-8.643782E-3,6.975E3,4.099E1,3.01E1,-2.672129E-3,1.6489187E-3,1.342365E-4,-3.3811033E-3,-1.3599694E-3,-8.23463E-3],"split_indices":[3,2,7,0,4,2,2,0,0,0,0,0,0],"split_type":[0,0,0,0,0,0,0,0,0,0,0,0,0],"sum_hessian":[9.57E2,8E0,9.49E2,3E0,5E0,9.39E2,1E1,3E0,2E0,9.25E2,1.4E1,7E0,3E0],"tree_param":{"num_deleted":"0","num_feature":"23","num_nodes":"13","size_leaf_vector":"1"}},{"base_weights":[-1.2258941E-4,-1.94353E-3,9.545974E-3,2.3205662E-3,-1.7469354E-2,-4.929608E-2,1.5403836E-2,1.4015567E-3,-2.0986328E-4,-6.0029645E-3,-5.931673E-4,-1.1600632E-2,1.4648112E-2,5.838152E-3,-3.8069286E-4],"categories":[],"categories_nodes":[],"categories_segments":[],"categories_sizes":[],"default_left":[0,0,0,0,0,0,0,0,0,0,0,0,0,0,0],"id":66,"left_children":[1,3,5,7,9,11,13,-1,-1,-1,-1,-1,-1,-1,-1],"loss_changes":[1.6884986E-2,5.3466853E-2,5.315202E-2,3.279614E-2,8.508611E-2,1.9983755E-1,1.1498541E-1,0E0,0E0,0E0,0E0,0E0,0E0,0E0,0E0],"parents":[2147483647,0,0,1,1,2,2,3,3,4,4,5,5,6,6],"right_children":[2,4,6,8,10,12,14,-1,-1,-1,-1,-1,-1,-1,-1],"split_conditions":[2.5E1,1.8E1,3.94E0,4.08E0,4.08E0,9E0,4.6E0,1.4015567E-3,-2.0986328E-4,-6.0029645E-3,-5.931673E-4,-1.1600632E-2,1.4648112E-2,5.838152E-3,-3.8069286E-4],"split_indices":[22,22,2,2,2,9,2,0,0,0,0,0,0,0,0],"split_type":[0,0,0,0,0,0,0,0,0,0,0,0,0,0,0],"sum_hessian":[9.57E2,8.06E2,1.51E2,6.33E2,1.73E2,1.3E1,1.38E2,1.73E2,4.6E2,3.6E1,1.37E2,1E1,3E0,4.2E1,9.6E1],"tree_param":{"num_deleted":"0","num_feature":"23","num_nodes":"15","size_leaf_vector":"1"}},{"base_weights":[-1.0708741E-4,-1.124447E-3,1.6299747E-2,4.0994742E-4,-1.8069627E-2,-2.4817083E-2,2.3669574E-2,1.8141343E-4,-1.9005243E-3,-8.609556E-3,-1.0457157E-4,-5.742856E-3,5.954872E-3,1.3502043E-3,3.8477804E-3],"categories":[],"categories_nodes":[],"categories_segments":[],"categories_sizes":[],"default_left":[0,0,0,0,0,0,0,0,0,0,0,0,0,0,0],"id":67,"left_children":[1,3,5,7,9,11,13,-1,-1,-1,-1,-1,-1,-1,-1],"loss_changes":[1.6008928E-2,2.3485938E-2,1.7556747E-2,2.2635136E-2,8.676502E-2,2.8181436E-2,6.7075044E-3,0E0,0E0,0E0,0E0,0E0,0E0,0E0,0E0],"parents":[2147483647,0,0,1,1,2,2,3,3,4,4,5,5,6,6],"right_children":[2,4,6,8,10,12,14,-1,-1,-1,-1,-1,-1,-1,-1],"split_conditions":[8.8E1,1.35E3,5.13E0,1.026E4,2.1E1,1.1E1,1.13E2,1.8141343E-4,-1.9005243E-3,-8.609556E-3,-1.0457157E-4,-5.742856E-3,5.954872E-3,1.3502043E-3,3.8477804E-3],"split_indices":[5,3,2,4,5,0,5,0,0,0,0,0,0,0,0],"split_type":[0,0,0,0,0,0,0,0,0,0,0,0,0,0,0],"sum_hessian":[9.57E2,9.02E2,5.5E1,8.28E2,7.4E1,8E0,4.7E1,7.73E2,5.5E1,1.4E1,6E1,6E0,2E0,2.9E1,1.8E1],"tree_param":{"num_deleted":"0","num_feature":"23","num_nodes":"15","size_leaf_vector":"1"}},{"base_weights":[-1.01640275E-4,-4.1346725E-2,2.8920962E-4,-7.993364E-3,-8.730997E-3,-1.3016206E-2,1.5611685E-3,-2.4653152E-3,1.5408874E-3,-3.2102633E-3,1.2793926E-3,1.383751E-3,-1.3831774E-4],"categories":[],"categories_nodes":[],"categories_segments":[],"categories_sizes":[],"default_left":[0,0,0,0,0,0,0,0,0,0,0,0,0],"id":68,"left_children":[1,3,5,-1,7,9,11,-1,-1,-1,-1,-1,-1],"loss_changes":[1.5455529E-2,1.062896E-2,1.6098063E-2,0E0,2.68603E-3,4.129845E-2,3.139369E-2,0E0,0E0,0E0,0E0,0E0,0E0],"parents":[2147483647,0,0,1,1,2,2,4,4,5,5,6,6],"right_children":[2,4,6,-1,8,10,12,-1,-1,-1,-1,-1,-1],"split_conditions":[1.57E2,2.531E1,3E0,-7.993364E-3,6.975E3,8E0,7E0,-2.4653152E-3,1.5408874E-3,-3.2102633E-3,1.2793926E-3,1.383751E-3,-1.3831774E-4],"split_indices":[3,2,22,0,4,0,22,0,0,0,0,0,0],"split_type":[0,0,0,0,0,0,0,0,0,0,0,0,0],"sum_hessian":[9.57E2,8E0,9.49E2,3E0,5E0,8.2E1,8.67E2,3E0,2E0,4.7E1,3.5E1,1.67E2,7E2],"tree_param":{"num_deleted":"0","num_feature":"23","num_nodes":"13","size_leaf_vector":"1"}},{"base_weights":[-1.0148031E-4,3.248965E-4,-3.6838185E-2,-6.6587487E-3,2.4947794E-3,-1.2535442E-2,-7.6234126E-3,3.9700605E-4,-6.077189E-3,1.590701E-3,-2.1381881E-4,3.600651E-4,-2.9571697E-3],"categories":[],"categories_nodes":[],"categories_segments":[],"categories_sizes":[],"default_left":[0,0,0,0,0,0,0,0,0,0,0,0,0],"id":69,"left_children":[1,3,5,7,9,11,-1,-1,-1,-1,-1,-1,-1],"loss_changes":[1.5017773E-2,1.4382312E-2,9.576097E-3,1.2965189E-1,4.5022234E-2,2.3056665E-3,0E0,0E0,0E0,0E0,0E0,0E0,0E0],"parents":[2147483647,0,0,1,1,2,2,3,3,4,4,5,5],"right_children":[2,4,6,8,10,12,-1,-1,-1,-1,-1,-1,-1],"split_conditions":[2E1,9E0,3.01E1,1E0,1.005E1,6.66E2,-7.6234126E-3,3.9700605E-4,-6.077189E-3,1.590701E-3,-2.1381881E-4,3.600651E-4,-2.9571697E-3],"split_indices":[7,9,2,18,2,3,0,0,0,0,0,0,0],"split_type":[0,0,0,0,0,0,0,0,0,0,0,0,0],"sum_hessian":[9.57E2,9.47E2,1E1,2.24E2,7.23E2,7E0,3E0,1.88E2,3.6E1,1.85E2,5.38E2,4E0,3E0],"tree_param":{"num_deleted":"0","num_feature":"23","num_nodes":"13","size_leaf_vector":"1"}},{"base_weights":[-1.06511245E-4,-1.8466825E-3,9.133125E-3,1.7742994E-3,-1.5029762E-2,-2.963156E-2,1.627436E-2,-5.0611473E-3,2.694923E-4,-5.3510047E-3,-4.6036718E-4,-6.267901E-3,7.995728E-3,6.7226677E-3,-4.9480586E-4],"categories":[],"categories_nodes":[],"categories_segments":[],"categories_sizes":[],"default_left":[0,0,0,0,0,0,0,0,0,0,0,0,0,0,0],"id":70,"left_children":[1,3,5,7,9,11,13,-1,-1,-1,-1,-1,-1,-1,-1],"loss_changes":[1.54201165E-2,3.854937E-2,4.2560045E-2,3.071268E-2,6.956227E-2,9.19308E-2,1.398244E-1,0E0,0E0,0E0,0E0,0E0,0E0,0E0,0E0],"parents":[2147483647,0,0,1,1,2,2,3,3,4,4,5,5,6,6],"right_children":[2,4,6,8,10,12,14,-1,-1,-1,-1,-1,-1,-1,-1],"split_conditions":[2.5E1,1.8E1,1.2E3,8E0,9E0,3.1E1,4.6E0,-5.0611473E-3,2.694923E-4,-5.3510047E-3,-4.6036718E-4,-6.267901E-3,7.995728E-3,6.7226677E-3,-4.9480586E-4],"split_indices":[22,22,4,9,9,22,2,0,0,0,0,0,0,0,0],"split_type":[0,0,0,0,0,0,0,0,0,0,0,0,0,0,0],"sum_hessian":[9.57E2,8.06E2,1.51E2,6.33E2,1.73E2,2.3E1,1.28E2,1E1,6.23E2,3.6E1,1.37E2,1.8E1,5E0,3.7E1,9.1E1],"tree_param":{"num_deleted":"0","num_feature":"23","num_nodes":"15","size_leaf_vector":"1"}},{"base_weights":[-9.861214E-5,2.7460922E-4,-3.948324E-2,-1.2243651E-2,1.4713154E-3,-1.06665544E-1,-5.0503653E-3,-9.132781E-3,-6.0032844E-4,9.2370267E-4,-1.3096521E-4,-3.2728405E-3,-1.2726991E-2,-6.6875652E-3,1.6399792E-3],"categories":[],"categories_nodes":[],"categories_segments":[],"categories_sizes":[],"default_left":[0,0,0,0,0,0,0,0,0,0,0,0,0,0,0],"id":71,"left_children":[1,3,5,7,9,11,13,-1,-1,-1,-1,-1,-1,-1,-1],"loss_changes":[1.4092661E-2,1.4249659E-2,2.0280816E-2,4.0413406E-2,1.8757591E-2,4.0494278E-4,1.0379881E-2,0E0,0E0,0E0,0E0,0E0,0E0,0E0,0E0],"parents":[2147483647,0,0,1,1,2,2,3,3,4,4,5,5,6,6],"right_children":[2,4,6,8,10,12,14,-1,-1,-1,-1,-1,-1,-1,-1],"split_conditions":[1.077E4,3E0,4E0,3.9E0,4.08E0,3E0,4E-1,-9.132781E-3,-6.0032844E-4,9.2370267E-4,-1.3096521E-4,-3.2728405E-3,-1.2726991E-2,-6.6875652E-3,1.6399792E-3],"split_indices":[4,22,0,2,2,0,1,0,0,0,0,0,0,0,0],"split_type":[0,0,0,0,0,0,0,0,0,0,0,0,0,0,0],"sum_hessian":[9.57E2,9.49E2,8E0,8.2E1,8.67E2,2E0,6E0,5E0,7.7E1,2.28E2,6.39E2,1E0,1E0,1E0,5E0],"tree_param":{"num_deleted":"0","num_feature":"23","num_nodes":"15","size_leaf_vector":"1"}},{"base_weights":[-1.2005938E-4,4.7965836E-2,-4.2267775E-4,8.344212E-3,9.367168E-3,-6.921905E-2,1.5955654E-4,-5.5999993E-3,4.9822885E-3,-1.2561912E-2,6.665411E-3,3.342516E-5,-8.246362E-3],"categories":[],"categories_nodes":[],"categories_segments":[],"categories_sizes":[],"default_left":[0,0,0,0,0,0,0,0,0,0,0,0,0],"id":72,"left_children":[1,3,5,-1,7,9,11,-1,-1,-1,-1,-1,-1],"loss_changes":[1.3960779E-2,7.4344035E-3,3.8184036E-2,0E0,1.33679835E-2,6.967907E-2,1.3681993E-2,0E0,0E0,0E0,0E0,0E0,0E0],"parents":[2147483647,0,0,1,1,2,2,4,4,5,5,6,6],"right_children":[2,4,6,-1,8,10,12,-1,-1,-1,-1,-1,-1],"split_conditions":[5E0,3E0,8E0,8.344212E-3,7.5E-1,1.32E3,5.102E1,-5.5999993E-3,4.9822885E-3,-1.2561912E-2,6.665411E-3,3.342516E-5,-8.246362E-3],"split_indices":[9,20,9,0,1,4,2,0,0,0,0,0,0],"split_type":[0,0,0,0,0,0,0,0,0,0,0,0,0],"sum_hessian":[9.57E2,5E0,9.52E2,2E0,3E0,7E0,9.45E2,1E0,2E0,5E0,2E0,9.44E2,1E0],"tree_param":{"num_deleted":"0","num_feature":"23","num_nodes":"13","size_leaf_vector":"1"}},{"base_weights":[-1.1472919E-4,-1.3146561E-3,1.13319885E-2,1.0526727E-4,-1.885779E-2,-3.433159E-2,1.4386052E-2,3.0371274E-3,-6.264877E-5,-7.792792E-3,-1.1144631E-4,-1.237885E-2,4.134399E-3,5.7611563E-3,9.826684E-4],"categories":[],"categories_nodes":[],"categories_segments":[],"categories_sizes":[],"default_left":[0,0,0,0,0,0,0,0,0,0,0,0,0,0,0],"id":73,"left_children":[1,3,5,7,9,11,13,-1,-1,-1,-1,-1,-1,-1,-1],"loss_changes":[1.3173244E-2,2.1623785E-2,1.3184708E-2,1.7825454E-2,6.80397E-2,4.5736123E-2,1.638284E-2,0E0,0E0,0E0,0E0,0E0,0E0,0E0,0E0],"parents":[2147483647,0,0,1,1,2,2,3,3,4,4,5,5,6,6],"right_children":[2,4,6,8,10,12,14,-1,-1,-1,-1,-1,-1,-1,-1],"split_conditions":[6.5E1,1.35E3,1E1,7.2E2,2.1E1,7.5E-1,7.5E-1,3.0371274E-3,-6.264877E-5,-7.792792E-3,-1.1144631E-4,-1.237885E-2,4.134399E-3,5.7611563E-3,9.826684E-4],"split_indices":[5,3,9,4,5,1,1,0,0,0,0,0,0,0,0],"split_type":[0,0,0,0,0,0,0,0,0,0,0,0,0,0,0],"sum_hessian":[9.57E2,8.67E2,9E1,8.03E2,6.4E1,5E0,8.5E1,1.8E1,7.85E2,1.4E1,5E1,2E0,3E0,7E0,7.8E1],"tree_param":{"num_deleted":"0","num_feature":"23","num_nodes":"15","size_leaf_vector":"1"}},{"base_weights":[-1.0996971E-4,2.9174215E-4,-3.472023E-2,-3.802513E-2,6.5829547E-4,-1.5632115E-2,-8.041116E-3,-6.065381E-3,5.4241717E-4,2.3078766E-4,-8.184786E-4,9.467155E-4,-2.4155786E-3],"categories":[],"categories_nodes":[],"categories_segments":[],"categories_sizes":[],"default_left":[0,0,0,0,0,0,0,0,0,0,0,0,0],"id":74,"left_children":[1,3,5,7,9,11,-1,-1,-1,-1,-1,-1,-1],"loss_changes":[1.3329541E-2,1.3339859E-2,8.336697E-3,9.177798E-3,1.3731026E-2,2.1541282E-3,0E0,0E0,0E0,0E0,0E0,0E0,0E0],"parents":[2147483647,0,0,1,1,2,2,3,3,4,4,5,5],"right_children":[2,4,6,8,10,12,-1,-1,-1,-1,-1,-1,-1],"split_conditions":[2E1,1.57E2,5.85E1,3.01E1,1.1E1,6.5E-1,-8.041116E-3,-6.065381E-3,5.4241717E-4,2.3078766E-4,-8.184786E-4,9.467155E-4,-2.4155786E-3],"split_indices":[7,3,9,2,0,1,0,0,0,0,0,0,0],"split_type":[0,0,0,0,0,0,0,0,0,0,0,0,0],"sum_hessian":[9.57E2,9.47E2,1E1,8E0,9.39E2,8E0,2E0,5E0,3E0,7.92E2,1.47E2,2E0,6E0],"tree_param":{"num_deleted":"0","num_feature":"23","num_nodes":"13","size_leaf_vector":"1"}},{"base_weights":[-1.1527761E-4,2.420419E-4,-3.7819527E-2,4.0757516E-4,-7.842451E-3,-1.0146666E-1,-5.1393933E-3,-8.007241E-4,1.9723692E-4,-3.119278E-3,-1.2100722E-2,-6.310803E-3,1.504005E-3],"categories":[],"categories_nodes":[],"categories_segments":[],"categories_sizes":[],"default_left":[0,0,0,0,0,0,0,0,0,0,0,0,0],"id":75,"left_children":[1,3,5,7,-1,9,11,-1,-1,-1,-1,-1,-1],"loss_changes":[1.2915773E-2,1.24028E-2,1.8198498E-2,1.2511706E-2,0E0,3.4501962E-4,9.137571E-3,0E0,0E0,0E0,0E0,0E0,0E0],"parents":[2147483647,0,0,1,1,2,2,3,3,5,5,6,6],"right_children":[2,4,6,8,-1,10,12,-1,-1,-1,-1,-1,-1],"split_conditions":[1.077E4,5.102E1,4E0,8.16E2,-7.842451E-3,3E0,4E-1,-8.007241E-4,1.9723692E-4,-3.119278E-3,-1.2100722E-2,-6.310803E-3,1.504005E-3],"split_indices":[4,2,0,3,0,0,1,0,0,0,0,0,0],"split_type":[0,0,0,0,0,0,0,0,0,0,0,0,0],"sum_hessian":[9.57E2,9.49E2,8E0,9.48E2,1E0,2E0,6E0,1.48E2,8E2,1E0,1E0,1E0,5E0],"tree_param":{"num_deleted":"0","num_feature":"23","num_nodes":"13","size_leaf_vector":"1"}},{"base_weights":[-1.3346592E-4,2.0895226E-4,-3.6262777E-2,-1.1289733E-2,1.3082402E-3,-9.639334E-2,-5.3121406E-3,-2.3629272E-3,2.39985E-3,-7.3104404E-4,4.035507E-4,-2.9633136E-3,-1.1495687E-2,2.78219E-3,-3.7118145E-3],"categories":[],"categories_nodes":[],"categories_segments":[],"categories_sizes":[],"default_left":[0,0,0,0,0,0,0,0,0,0,0,0,0,0,0],"id":76,"left_children":[1,3,5,7,9,11,13,-1,-1,-1,-1,-1,-1,-1,-1],"loss_changes":[1.18593145E-2,1.2023116E-2,1.6237658E-2,3.6708627E-2,2.0432223E-2,3.1138211E-4,8.409727E-3,0E0,0E0,0E0,0E0,0E0,0E0,0E0,0E0],"parents":[2147483647,0,0,1,1,2,2,3,3,4,4,5,5,6,6],"right_children":[2,4,6,8,10,12,14,-1,-1,-1,-1,-1,-1,-1,-1],"split_conditions":[1.077E4,3E0,4E0,6.78E3,9E0,3E0,7E0,-2.3629272E-3,2.39985E-3,-7.3104404E-4,4.035507E-4,-2.9633136E-3,-1.1495687E-2,2.78219E-3,-3.7118145E-3],"split_indices":[4,22,0,4,9,0,0,0,0,0,0,0,0,0,0],"split_type":[0,0,0,0,0,0,0,0,0,0,0,0,0,0,0],"sum_hessian":[9.57E2,9.49E2,8E0,8.2E1,8.67E2,2E0,6E0,6.1E1,2.1E1,2.08E2,6.59E2,1E0,1E0,3E0,3E0],"tree_param":{"num_deleted":"0","num_feature":"23","num_nodes":"15","size_leaf_vector":"1"}},{"base_weights":[-1.3646843E-4,3.0628926E-4,-2.7991587E-2,-1.6377293E-2,1.0626173E-3,-4.7727488E-2,9.5668435E-3,-8.9689513E-4,-6.7923563E-3,-6.9732116E-5,1.0671833E-3,-1.5863304E-3,-9.155794E-3,-1.5353858E-4,2.118087E-3],"categories":[],"categories_nodes":[],"categories_segments":[],"categories_sizes":[],"default_left":[0,0,0,0,0,0,0,0,0,0,0,0,0,0,0],"id":77,"left_children":[1,3,5,7,9,11,13,-1,-1,-1,-1,-1,-1,-1,-1],"loss_changes":[1.1823653E-2,1.1929041E-2,1.1575343E-2,1.5047562E-2,1.5295555E-2,1.2513803E-2,8.061701E-4,0E0,0E0,0E0,0E0,0E0,0E0,0E0,0E0],"parents":[2147483647,0,0,1,1,2,2,3,3,4,4,5,5,6,6],"right_children":[2,4,6,8,10,12,14,-1,-1,-1,-1,-1,-1,-1,-1],"split_conditions":[4.099E1,4.61E2,4.4E1,4.33E2,2.5E1,1E0,4.71E2,-8.9689513E-4,-6.7923563E-3,-6.9732116E-5,1.0671833E-3,-1.5863304E-3,-9.155794E-3,-1.5353858E-4,2.118087E-3],"split_indices":[2,3,5,3,22,16,3,0,0,0,0,0,0,0,0],"split_type":[0,0,0,0,0,0,0,0,0,0,0,0,0,0,0],"sum_hessian":[9.57E2,9.43E2,1.4E1,4E1,9.03E2,9E0,5E0,3.6E1,4E0,7.64E2,1.39E2,6E0,3E0,3E0,2E0],"tree_param":{"num_deleted":"0","num_feature":"23","num_nodes":"15","size_leaf_vector":"1"}},{"base_weights":[-1.3896267E-4,-1.3296953E-2,7.863636E-4,6.1606124E-2,-4.231779E-2,5.672685E-3,-3.292175E-3,7.760769E-3,-1.05210235E-2,-1.8378874E-2,-3.5089795E-3,9.6877565E-4,-1.8241685E-3,-2.2493524E-3,1.8267683E-4],"categories":[],"categories_nodes":[],"categories_segments":[],"categories_sizes":[],"default_left":[0,0,0,0,0,0,0,0,0,0,0,0,0,0,0],"id":78,"left_children":[1,3,5,7,9,11,13,-1,-1,-1,-1,-1,-1,-1,-1],"loss_changes":[1.1674523E-2,1.3955328E-1,1.7875103E-2,5.621294E-2,4.0588237E-2,3.9352033E-2,4.8105203E-2,0E0,0E0,0E0,0E0,0E0,0E0,0E0,0E0],"parents":[2147483647,0,0,1,1,2,2,3,3,4,4,5,5,6,6],"right_children":[2,4,6,8,10,12,14,-1,-1,-1,-1,-1,-1,-1,-1],"split_conditions":[6E-1,4.6E0,2E0,9E0,9E0,1.1E1,9E0,7.760769E-3,-1.05210235E-2,-1.8378874E-2,-3.5089795E-3,9.6877565E-4,-1.8241685E-3,-2.2493524E-3,1.8267683E-4],"split_indices":[1,2,21,0,9,0,9,0,0,0,0,0,0,0,0],"split_type":[0,0,0,0,0,0,0,0,0,0,0,0,0,0,0],"sum_hessian":[9.57E2,6.2E1,8.95E2,1.7E1,4.5E1,4.07E2,4.88E2,1.6E1,1E0,1E0,4.4E1,3.49E2,5.8E1,1.02E2,3.86E2],"tree_param":{"num_deleted":"0","num_feature":"23","num_nodes":"15","size_leaf_vector":"1"}},{"base_weights":[-1.5384272E-4,4.336558E-2,-4.2767555E-4,7.7563166E-3,6.875992E-3,-6.1707113E-2,9.099589E-5,-5.340752E-3,4.4773E-3,-1.1384399E-2,6.313566E-3,4.9746496E-4,-2.6196215E-4],"categories":[],"categories_nodes":[],"categories_segments":[],"categories_sizes":[],"default_left":[0,0,0,0,0,0,0,0,0,0,0,0,0],"id":79,"left_children":[1,3,5,-1,7,9,11,-1,-1,-1,-1,-1,-1],"loss_changes":[1.1435076E-2,6.953812E-3,3.0295664E-2,0E0,1.15294745E-2,5.925891E-2,1.2535911E-2,0E0,0E0,0E0,0E0,0E0,0E0],"parents":[2147483647,0,0,1,1,2,2,4,4,5,5,6,6],"right_children":[2,4,6,-1,8,10,12,-1,-1,-1,-1,-1,-1],"split_conditions":[5E0,3E0,8E0,7.7563166E-3,7.5E-1,1.32E3,1.98E3,-5.340752E-3,4.4773E-3,-1.1384399E-2,6.313566E-3,4.9746496E-4,-2.6196215E-4],"split_indices":[9,20,9,0,1,4,4,0,0,0,0,0,0],"split_type":[0,0,0,0,0,0,0,0,0,0,0,0,0],"sum_hessian":[9.57E2,5E0,9.52E2,2E0,3E0,7E0,9.45E2,1E0,2E0,5E0,2E0,3.37E2,6.08E2],"tree_param":{"num_deleted":"0","num_feature":"23","num_nodes":"13","size_leaf_vector":"1"}},{"base_weights":[-1.3630881E-4,2.5629107E-4,-2.8695015E-2,-1.2494872E-2,1.1493034E-3,4.954928E-3,-4.420109E-2,5.50333E-3,-3.9228476E-3,-1.1477555E-3,2.6464945E-4,-1.9959584E-4,1.6379238E-3,-1.2309134E-3,-5.809555E-3],"categories":[],"categories_nodes":[],"categories_segments":[],"categories_sizes":[],"default_left":[0,0,0,0,0,0,0,0,0,0,0,0,0,0,0],"id":80,"left_children":[1,3,5,7,9,11,13,-1,-1,-1,-1,-1,-1,-1,-1],"loss_changes":[1.07485885E-2,1.0786411E-2,7.002135E-3,1.1408569E-1,1.676114E-2,4.297376E-4,3.272986E-3,0E0,0E0,0E0,0E0,0E0,0E0,0E0,0E0],"parents":[2147483647,0,0,1,1,2,2,3,3,4,4,5,5,6,6],"right_children":[2,4,6,8,10,12,14,-1,-1,-1,-1,-1,-1,-1,-1],"split_conditions":[1.5E1,6E-1,3.81E2,4.6E0,3.94E0,2E0,2.531E1,5.50333E-3,-3.9228476E-3,-1.1477555E-3,2.6464945E-4,-1.9959584E-4,1.6379238E-3,-1.2309134E-3,-5.809555E-3],"split_indices":[7,1,3,2,2,8,2,0,0,0,0,0,0,0,0],"split_type":[0,0,0,0,0,0,0,0,0,0,0,0,0,0,0],"sum_hessian":[9.57E2,9.45E2,1.2E1,6.1E1,8.84E2,4E0,8E0,1.7E1,4.4E1,9.3E1,7.91E2,3E0,1E0,3E0,5E0],"tree_param":{"num_deleted":"0","num_feature":"23","num_nodes":"15","size_leaf_vector":"1"}},{"base_weights":[-1.2779555E-4,-3.3935145E-2,1.9261913E-4,-6.8479697E-3,-5.2495897E-3,5.145327E-4,-3.35224E-2,-1.8995985E-3,1.4828801E-3,6.651601E-5,-7.061291E-3,-9.21748E-3,-3.5967442E-4],"categories":[],"categories_nodes":[],"categories_segments":[],"categories_sizes":[],"default_left":[0,0,0,0,0,0,0,0,0,0,0,0,0],"id":81,"left_children":[1,3,5,-1,7,9,11,-1,-1,-1,-1,-1,-1],"loss_changes":[1.0383948E-2,8.558876E-3,1.03279045E-2,0E0,1.9377207E-3,1.0139311E-2,1.5465373E-2,0E0,0E0,0E0,0E0,0E0,0E0],"parents":[2147483647,0,0,1,1,2,2,4,4,5,5,6,6],"right_children":[2,4,6,-1,8,10,12,-1,-1,-1,-1,-1,-1],"split_conditions":[1.57E2,2.531E1,1.077E4,-6.8479697E-3,6.975E3,5.102E1,4E0,-1.8995985E-3,1.4828801E-3,6.651601E-5,-7.061291E-3,-9.21748E-3,-3.5967442E-4],"split_indices":[3,2,4,0,4,2,0,0,0,0,0,0,0],"split_type":[0,0,0,0,0,0,0,0,0,0,0,0,0],"sum_hessian":[9.57E2,8E0,9.49E2,3E0,5E0,9.41E2,8E0,3E0,2E0,9.4E2,1E0,2E0,6E0],"tree_param":{"num_deleted":"0","num_feature":"23","num_nodes":"13","size_leaf_vector":"1"}},{"base_weights":[-1.3990042E-4,-7.8885147E-4,1.5592305E-2,4.4238748E-4,-1.2903653E-2,-6.355208E-2,2.4191884E-2,1.6227075E-4,-1.5438509E-3,-6.9206613E-3,-8.2692124E-5,4.2993813E-3,-1.1339865E-2,3.0819133E-3,-3.4874082E-3],"categories":[],"categories_nodes":[],"categories_segments":[],"categories_sizes":[],"default_left":[0,0,0,0,0,0,0,0,0,0,0,0,0,0,0],"id":82,"left_children":[1,3,5,7,9,11,13,-1,-1,-1,-1,-1,-1,-1,-1],"loss_changes":[9.792934E-3,1.3743543E-2,2.7400564E-2,1.571423E-2,5.7738997E-2,2.611923E-2,1.4775358E-2,0E0,0E0,0E0,0E0,0E0,0E0,0E0,0E0],"parents":[2147483647,0,0,1,1,2,2,3,3,4,4,5,5,6,6],"right_children":[2,4,6,8,10,12,14,-1,-1,-1,-1,-1,-1,-1,-1],"split_conditions":[9E1,1.35E3,7.5E-1,1.026E4,2.1E1,6E0,1.08E3,1.6227075E-4,-1.5438509E-3,-6.9206613E-3,-8.2692124E-5,4.2993813E-3,-1.1339865E-2,3.0819133E-3,-3.4874082E-3],"split_indices":[5,3,1,4,5,0,5,0,0,0,0,0,0,0,0],"split_type":[0,0,0,0,0,0,0,0,0,0,0,0,0,0,0],"sum_hessian":[9.57E2,9.2E2,3.7E1,8.36E2,8.4E1,3E0,3.4E1,7.79E2,5.7E1,1.4E1,7E1,1E0,2E0,3.1E1,3E0],"tree_param":{"num_deleted":"0","num_feature":"23","num_nodes":"15","size_leaf_vector":"1"}},{"base_weights":[-1.4241505E-4,3.9766658E-2,-3.9352945E-4,7.2063366E-3,5.602464E-3,-5.624887E-2,7.923614E-5,-5.098385E-3,4.1459184E-3,-9.21761E-3,9.762085E-3,2.529029E-4,-4.6537357E-4],"categories":[],"categories_nodes":[],"categories_segments":[],"categories_sizes":[],"default_left":[0,0,0,0,0,0,0,0,0,0,0,0,0],"id":83,"left_children":[1,3,5,-1,7,9,11,-1,-1,-1,-1,-1,-1],"loss_changes":[9.616479E-3,6.2166145E-3,2.5169836E-2,0E0,1.0229746E-2,5.32232E-2,1.0980451E-2,0E0,0E0,0E0,0E0,0E0,0E0],"parents":[2147483647,0,0,1,1,2,2,4,4,5,5,6,6],"right_children":[2,4,6,-1,8,10,12,-1,-1,-1,-1,-1,-1],"split_conditions":[5E0,3E0,8E0,7.2063366E-3,7.5E-1,1.56E3,1.8E1,-5.098385E-3,4.1459184E-3,-9.21761E-3,9.762085E-3,2.529029E-4,-4.6537357E-4],"split_indices":[9,20,9,0,1,4,22,0,0,0,0,0,0],"split_type":[0,0,0,0,0,0,0,0,0,0,0,0,0],"sum_hessian":[9.57E2,5E0,9.52E2,2E0,3E0,7E0,9.45E2,1E0,2E0,6E0,1E0,6.23E2,3.22E2],"tree_param":{"num_deleted":"0","num_feature":"23","num_nodes":"13","size_leaf_vector":"1"}},{"base_weights":[-1.2129261E-4,-1.0245243E-2,8.3807856E-4,-2.8197942E-2,1.397628E-2,1.0392126E-2,-1.4771906E-3,-8.877841E-3,7.8874215E-4,1.2181171E-2,-2.1184261E-3,3.8445424E-3,-2.3905159E-5,-1.4839116E-3,2.722889E-4],"categories":[],"categories_nodes":[],"categories_segments":[],"categories_sizes":[],"default_left":[0,0,0,0,0,0,0,0,0,0,0,0,0,0,0],"id":84,"left_children":[1,3,5,7,9,11,13,-1,-1,-1,-1,-1,-1,-1,-1],"loss_changes":[9.313283E-3,3.648596E-2,1.9392638E-2,1.056315E-1,1.3907637E-1,5.100816E-2,3.9661936E-2,0E0,0E0,0E0,0E0,0E0,0E0,0E0,0E0],"parents":[2147483647,0,0,1,1,2,2,3,3,4,4,5,5,6,6],"right_children":[2,4,6,8,10,12,14,-1,-1,-1,-1,-1,-1,-1,-1],"split_conditions":[3E0,8E0,7E0,2E1,9E0,4.08E0,9E0,-8.877841E-3,7.8874215E-4,1.2181171E-2,-2.1184261E-3,3.8445424E-3,-2.3905159E-5,-1.4839116E-3,2.722889E-4],"split_indices":[22,0,22,9,9,2,9,0,0,0,0,0,0,0,0],"split_type":[0,0,0,0,0,0,0,0,0,0,0,0,0,0,0],"sum_hessian":[9.57E2,8.2E1,8.75E2,4.7E1,3.5E1,1.7E2,7.05E2,1.7E1,3E1,8E0,2.7E1,4.6E1,1.24E2,1.68E2,5.37E2],"tree_param":{"num_deleted":"0","num_feature":"23","num_nodes":"15","size_leaf_vector":"1"}},{"base_weights":[-1.0437282E-4,2.878796E-4,-2.4783168E-2,-3.6634345E-5,3.4005344E-2,-2.994436E-3,-5.696719E-2,1.2651553E-4,-9.925122E-4,6.6926638E-3,6.390259E-4,1.4265019E-3,-1.6878241E-3,-9.427533E-4,-1.0136434E-2],"categories":[],"categories_nodes":[],"categories_segments":[],"categories_sizes":[],"default_left":[0,0,0,0,0,0,0,0,0,0,0,0,0,0,0],"id":85,"left_children":[1,3,5,7,9,11,13,-1,-1,-1,-1,-1,-1,-1,-1],"loss_changes":[9.280878E-3,1.0330293E-2,1.03481505E-2,1.2061431E-2,7.7544395E-3,2.6370378E-3,1.1708135E-2,0E0,0E0,0E0,0E0,0E0,0E0,0E0,0E0],"parents":[2147483647,0,0,1,1,2,2,3,3,4,4,5,5,6,6],"right_children":[2,4,6,8,10,12,14,-1,-1,-1,-1,-1,-1,-1,-1],"split_conditions":[4.099E1,3.048E1,1E0,1E0,6.5E-1,1.026E4,5.73E2,1.2651553E-4,-9.925122E-4,6.6926638E-3,6.390259E-4,1.4265019E-3,-1.6878241E-3,-9.427533E-4,-1.0136434E-2],"split_indices":[2,2,16,8,1,4,3,0,0,0,0,0,0,0,0],"split_type":[0,0,0,0,0,0,0,0,0,0,0,0,0,0,0],"sum_hessian":[9.57E2,9.43E2,1.4E1,9.35E2,8E0,9E0,5E0,8.27E2,1.08E2,3E0,5E0,4E0,5E0,3E0,2E0],"tree_param":{"num_deleted":"0","num_feature":"23","num_nodes":"15","size_leaf_vector":"1"}},{"base_weights":[-9.904303E-5,-1.4379635E-3,7.0102187E-3,1.5178942E-3,-1.2199893E-2,-2.1207107E-2,1.5320356E-2,1.1361715E-3,-2.2008536E-4,-5.90549E-3,-4.3093934E-4,8.548678E-3,-4.6229525E-3,6.3533955E-3,-3.3583536E-4],"categories":[],"categories_nodes":[],"categories_segments":[],"categories_sizes":[],"default_left":[0,0,0,0,0,0,0,0,0,0,0,0,0,0,0],"id":86,"left_children":[1,3,5,7,9,11,13,-1,-1,-1,-1,-1,-1,-1,-1],"loss_changes":[9.129029E-3,2.5689779E-2,3.596736E-2,2.3233645E-2,6.407494E-2,9.739287E-2,1.0648038E-1,0E0,0E0,0E0,0E0,0E0,0E0,0E0,0E0],"parents":[2147483647,0,0,1,1,2,2,3,3,4,4,5,5,6,6],"right_children":[2,4,6,8,10,12,14,-1,-1,-1,-1,-1,-1,-1,-1],"split_conditions":[2.5E1,1.8E1,1E1,4.08E0,3E0,3E0,5.13E0,1.1361715E-3,-2.2008536E-4,-5.90549E-3,-4.3093934E-4,8.548678E-3,-4.6229525E-3,6.3533955E-3,-3.3583536E-4],"split_indices":[22,22,9,2,0,0,2,0,0,0,0,0,0,0,0],"split_type":[0,0,0,0,0,0,0,0,0,0,0,0,0,0,0],"sum_hessian":[9.57E2,8.06E2,1.51E2,6.33E2,1.73E2,3.4E1,1.17E2,1.73E2,4.6E2,2.4E1,1.49E2,6E0,2.8E1,3.2E1,8.5E1],"tree_param":{"num_deleted":"0","num_feature":"23","num_nodes":"15","size_leaf_vector":"1"}},{"base_weights":[-8.443155E-5,3.8654614E-2,-3.2824042E-4,6.7858696E-3,7.0879012E-3,-4.8964363E-2,8.340569E-5,-4.7645927E-3,4.1214484E-3,1.1957859E-3,-1.5448736E-2,9.479551E-5,-1.1845978E-3],"categories":[],"categories_nodes":[],"categories_segments":[],"categories_sizes":[],"default_left":[0,0,0,0,0,0,0,0,0,0,0,0,0],"id":87,"left_children":[1,3,5,-1,7,9,11,-1,-1,-1,-1,-1,-1],"loss_changes":[9.060925E-3,5.0502857E-3,1.9083973E-2,0E0,9.435217E-3,5.32769E-2,9.76784E-3,0E0,0E0,0E0,0E0,0E0,0E0],"parents":[2147483647,0,0,1,1,2,2,4,4,5,5,6,6],"right_children":[2,4,6,-1,8,10,12,-1,-1,-1,-1,-1,-1],"split_conditions":[5E0,3E0,8E0,6.7858696E-3,7.5E-1,1E0,2.8E1,-4.7645927E-3,4.1214484E-3,1.1957859E-3,-1.5448736E-2,9.479551E-5,-1.1845978E-3],"split_indices":[9,20,9,0,1,17,22,0,0,0,0,0,0],"split_type":[0,0,0,0,0,0,0,0,0,0,0,0,0],"sum_hessian":[9.57E2,5E0,9.52E2,2E0,3E0,7E0,9.45E2,1E0,2E0,5E0,2E0,8.82E2,6.3E1],"tree_param":{"num_deleted":"0","num_feature":"23","num_nodes":"13","size_leaf_vector":"1"}},{"base_weights":[-8.557172E-5,-3.1520892E-2,2.1232666E-4,-6.378617E-3,-4.7572255E-3,-1.9431517E-2,6.989603E-4,-1.7525464E-3,1.3852835E-3,7.940088E-3,-6.763324E-3,-1.9083342E-4,5.0499354E-4],"categories":[],"categories_nodes":[],"categories_segments":[],"categories_sizes":[],"default_left":[0,0,0,0,0,0,0,0,0,0,0,0,0],"id":88,"left_children":[1,3,5,-1,7,9,11,-1,-1,-1,-1,-1,-1],"loss_changes":[8.977915E-3,7.4683875E-3,9.094969E-3,0E0,1.6684835E-3,1.14939675E-1,1.05371205E-2,0E0,0E0,0E0,0E0,0E0,0E0],"parents":[2147483647,0,0,1,1,2,2,4,4,5,5,6,6],"right_children":[2,4,6,-1,8,10,12,-1,-1,-1,-1,-1,-1],"split_conditions":[1.57E2,2.531E1,5E-1,-6.378617E-3,6.975E3,4.6E0,5.6E1,-1.7525464E-3,1.3852835E-3,7.940088E-3,-6.763324E-3,-1.9083342E-4,5.0499354E-4],"split_indices":[3,2,1,0,4,2,9,0,0,0,0,0,0],"split_type":[0,0,0,0,0,0,0,0,0,0,0,0,0],"sum_hessian":[9.57E2,8E0,9.49E2,3E0,5E0,2.2E1,9.27E2,3E0,2E0,7E0,1.5E1,5.8E2,3.47E2],"tree_param":{"num_deleted":"0","num_feature":"23","num_nodes":"13","size_leaf_vector":"1"}},{"base_weights":[-8.248025E-5,-5.261205E-4,2.0750554E-2,-3.741263E-2,-8.879249E-5,8.989415E-2,-2.15373E-3,3.296633E-3,-1.0155615E-2,8.587466E-5,-1.788854E-3,2.0143033E-3,1.0229617E-2,-5.9889155E-3,5.687908E-4],"categories":[],"categories_nodes":[],"categories_segments":[],"categories_sizes":[],"default_left":[0,0,0,0,0,0,0,0,0,0,0,0,0,0,0],"id":89,"left_children":[1,3,5,7,9,11,13,-1,-1,-1,-1,-1,-1,-1,-1],"loss_changes":[8.865111E-3,1.5144159E-2,3.18673E-2,5.3005837E-2,1.5683835E-2,2.2647195E-3,7.5844894E-3,0E0,0E0,0E0,0E0,0E0,0E0,0E0,0E0],"parents":[2147483647,0,0,1,1,2,2,3,3,4,4,5,5,6,6],"right_children":[2,4,6,8,10,12,14,-1,-1,-1,-1,-1,-1,-1,-1],"split_conditions":[3.1E1,8E0,1.08E3,3E0,2.8E1,4E0,6E-1,3.296633E-3,-1.0155615E-2,8.587466E-5,-1.788854E-3,2.0143033E-3,1.0229617E-2,-5.9889155E-3,5.687908E-4],"split_indices":[22,9,4,20,22,0,1,0,0,0,0,0,0,0,0],"split_type":[0,0,0,0,0,0,0,0,0,0,0,0,0,0,0],"sum_hessian":[9.57E2,9.38E2,1.9E1,1E1,9.28E2,4E0,1.5E1,5E0,5E0,8.82E2,4.6E1,1E0,3E0,1E0,1.4E1],"tree_param":{"num_deleted":"0","num_feature":"23","num_nodes":"15","size_leaf_vector":"1"}},{"base_weights":[-7.605965E-5,-1.4327653E-3,7.127477E-3,1.2448205E-3,-1.1180792E-2,-3.8865495E-2,1.1708586E-2,-1.1492079E-3,3.970037E-4,-4.7003133E-3,-1.4952313E-4,-9.129576E-3,1.1503412E-2,4.124612E-3,-1.5060794E-4],"categories":[],"categories_nodes":[],"categories_segments":[],"categories_sizes":[],"default_left":[0,0,0,0,0,0,0,0,0,0,0,0,0,